0.0,0.0,0.0,0.0,0.0,0.0,0.0,0.0,0.0,0.0,0.0,0.0,0.0,0.0,0.0,0.0,0.0,0.0,0.0,0.0,0.0,0.0,0.0,0.0,0.0,0.0,0.0,0.0,0.0,0.0,0.0,0.0,0.0,0.0,0.0,0.0,0.0,7.745647929559212E-5,0.004996748685203752,0.017794276851532686,0.030771976220514054,0.0012002995732315412,-0.009851692028859296,0.00952234255639272,0.0025203362185974502,0.0,0.0,0.0,0.0,0.0,0.0,0.0,0.0,0.0,0.0,0.0,0.0,0.0,0.0,0.0,0.0,0.0042034830778125845,5.218006665873104E-4,-0.005368969416018655,-0.020221520238803047,-0.014149410644180953,0.025248153318811212,0.009383591042181366,-0.018162778156579268,-0.0379763905904807,-0.05952261326075966,-0.033685981994102054,-0.06977394873681958,-0.07441163292742893,-0.0677491546339164,-0.06644449170587266,-0.08047959711359001,-0.03734169115294947,-0.011599850021437185,-0.006139314499366597,-1.781147561238001E-4,0.0,0.0,0.0,0.0,0.0,0.0,0.0,-0.004582440925772361,-0.0021881053735092132,0.004800369847579001,-0.0048561933341834534,-0.012767659235050816,-0.03442617365722282,-0.019414715195576835,-0.040922396126020194,-0.08030478958437291,-0.08537329155791866,-0.057853902108455264,-0.10268757483235062,-0.1229033712391371,-0.12974962040472857,-0.1227440605106876,-0.12180694995353228,-0.12292005207332957,-0.0869424015674208,-0.04904630217904711,-0.031010244317357917,-0.020682934438013032,-0.004315914601178971,0.0,0.0,0.0,0.0,0.0,0.006823364405764756,0.008895287507202936,0.010971796560454742,0.031008923665732428,-0.004260982401782085,-0.06362902078249122,-0.1356005192489779,-0.08218719377720449,-0.03812451715932741,0.0035892916020597914,-0.04048463565015624,-0.0339184033915844,0.04497030686911051,0.050344269476118364,-0.09762242366204688,0.08620317113884121,0.04760344344689738,-0.03346375335016625,-0.031120019722680404,-0.03451763230007896,-0.07114331465794951,-0.045773206047088864,-0.020158152972082864,-0.004631502775637605,0.0,0.0,0.0,1.845357939663718E-5,0.005324314581330902,0.009700090452156562,-0.002423025790655555,0.026853644201246855,-0.027825081524458922,-0.11807166334764191,-0.12552841259667988,-0.0735283484702248,0.0626150741506285,0.039926608622378276,0.1022899436546386,0.09480459244921899,0.13435573145947086,0.03270064763545063,0.03831002124389085,0.02187929298158176,-0.023221102966994558,0.04076570683747389,-0.060423582441744665,-0.07213002272205571,-0.1357685444412189,-0.07259514616108688,-0.022309285163609298,-0.003249342483206847,0.0,0.0,0.0,2.4013674632821012E-4,7.907299944517906E-4,0.006953048456242489,0.007459457174063519,-0.005032110256594487,-0.0688363688366014,-0.09692087172452724,-0.08920723079833295,-0.07934380383192106,0.07700112534308133,-0.058357325594498105,0.1064620133990256,0.14679133524756685,0.06882453890721868,0.1646736889960036,0.0763212623823516,0.025063521549249828,0.08920797988917593,0.03956879631151227,-0.0010662957381301274,-0.060557618588713426,-0.1877839438117925,-0.13683967946370446,-0.042724007860623615,-0.009899628439038794,-0.002027168809032354,0.0,-7.07728449055287E-4,0.004482735261532615,-0.009123353954972479,-7.749340969409205E-4,0.011390637850959359,0.029319850834474498,-0.054561429105428126,-0.026420243816802993,-0.010894387146738748,0.045003576925430354,0.018974438618316842,-0.07630897158892934,0.19235252269007,0.07880028627103018,0.13928712253559195,0.026219398423998893,0.04715497248302158,0.10569911962300219,0.0916974179520808,0.06722352989380918,0.047711738020722795,-0.07410107581438437,-0.20926590281308874,-0.21094081281740154,-0.10091622025353901,-0.0347861980942573,-0.0017032558909789628,0.0,-0.0014165812689029415,0.01125337254698808,0.011590285459851073,0.005468601708045813,-0.00891974907801791,0.0012335707032934055,-0.0768389921811311,-0.078191028564951,0.07173123337290434,0.06140869756562078,0.062030152291524976,0.1266830646652937,0.05360337387923023,0.08569454009494543,0.1338353172129035,0.214518861346793,0.15197967237890303,0.07388764540608704,0.025798172839393622,0.06865911084784836,-0.050812394933551844,0.023926995775395248,-0.11615041834908778,-0.2550027891419785,-0.19036728171945314,-0.0591244772828403,-2.6331110729656076E-4,0.0,-0.004792173749408042,0.009629468196027304,0.020981170125655847,-0.011457959617058837,-0.017317002497948174,-0.01083480773278849,0.07332955795851695,0.00285120086217214,-0.0799191798189826,-0.03784725489682546,0.017266749264272345,0.14351169811221556,0.05068616752576717,0.08003931128216174,0.02651993662135939,0.16696135814042132,0.10259711345097895,0.21867750020833784,0.04155274300110477,0.08858585567676068,0.10090591457867473,0.16524207074780778,0.031327722208923575,-0.20753620778569498,-0.2085190449556748,-0.057736389249405363,-0.00784650065092979,0.0,-0.00165769291164966,0.00589532118403124,0.0014620622598135744,-0.05889773377912306,-0.09553362913702529,-0.023197891174734756,0.029183694758465193,0.013528382380793022,-0.028886085404476187,0.08450780759266054,-0.06278124607324667,0.045381394680562626,0.129105921276457,0.0749012341288037,0.03025083818655791,0.013691253251657454,0.12034128388024218,0.17342199694565055,0.13926611802999983,0.18636985103753337,0.13700316317593142,0.2828539066813066,0.1930200896472887,-0.008687014075963614,-0.13106516433561916,-0.07315906457505575,-0.025876467203965914,0.0,0.003951219063289035,0.009809202589153326,-0.008493928261358075,-0.040987299409806534,-0.08747479431560047,-0.052008115663270266,0.021357500367281988,0.05250109990622572,0.06943028015513984,0.026416543607776892,0.025503993771984045,0.11001237018471109,-0.03099126390764896,-0.003948485044916798,-0.05661807044899662,-0.11094105940298006,-0.12336492358483052,0.04694688012601428,0.10027288575531647,0.05200887263437112,0.06987421581260997,0.3448312798453712,0.3407072973123959,0.16109765459269876,-0.03526533567076946,-0.009143121967772628,-0.0011448726466634323,0.0,0.003907638090227067,0.0025766496901775873,-0.024037357106302414,-0.03214784441728228,-0.06500595873360249,0.04484719947038291,-0.10597675880404131,0.12376495620439087,0.07120965615057248,-0.08117920649200815,-0.03910962662832007,-0.07815831021138477,-0.18788647102470024,-0.17883909216996707,-0.08933321603426267,-0.11130967306142099,-0.09063377136444142,-0.14706410845118834,-0.10431280332878443,0.022524989044810106,0.06775628705386913,0.30562278561078576,0.34111748117788476,0.198974768401772,0.011573382797839944,0.001323156534687351,0.0,0.0,0.0029877523778806545,-0.0022198095423657587,-0.033683285297687396,-0.02659844754241518,0.008686948485351653,0.09429633012409495,-0.011166826287101536,0.01743970075555674,-0.009492596637444794,0.13915155584246997,0.08858435026627284,-0.1088960437380813,-0.19953680888140082,-0.06373481809365816,-0.09125116885903312,-0.11954744203751168,-0.21789078207124365,-0.17976728923872382,-0.22051174431423376,0.11055784423101178,0.21330458241405445,0.33028917886012377,0.30009262368130335,0.13590459053651013,9.40969673015739E-4,-0.004216482023758788,0.0,0.0,0.0,0.0,-0.003972976013365308,0.010035012605295818,0.041087393543875285,0.11906167560471072,0.1502436883768199,0.10182714575671771,0.16642371826074004,0.1974191681997406,0.10253211659652926,-0.23560293323419146,-0.1324846812935638,-0.15051184963494021,-0.08639466072253756,-0.18775176629057808,-0.2345259078760706,-0.13466042449181218,-0.16107919565968778,0.13397506712574092,0.2816086552005835,0.1966272906910188,0.24053300769697383,0.07909588462562742,-0.0017560320928666955,-0.001764228425945799,0.0,0.0,0.0,0.0,-0.02179780975320426,-0.033251263778546696,0.15767359379404597,0.20033300317068542,0.24288781808059015,0.12330117666419181,0.0814753495718579,0.1013073662331084,-0.018581162215662212,-0.29273515871073935,-0.0583529889915605,0.06567984312144629,-0.12524829185716002,-0.1053879429935171,-0.2419588409914788,-0.21195976880448245,-0.00230632896590932,0.20405442189992662,0.14567536411002002,0.07510313454760885,0.1420996241002061,0.06557255660789982,0.0246448730379291,0.00201626260511886,9.838212312718165E-4,0.0,0.0,-0.010919154710437374,-0.04972362907727606,-0.024943034979093788,0.16717013819471552,0.19261914540344244,0.17266531065294632,0.034710277871873314,0.068563231543497,0.07597798995218728,0.06610250527854077,-0.2400552776726375,-0.16993254132172592,-0.15311726783828183,-0.19031690097075146,-0.1490016303085786,-0.1489079382027959,-0.04610498926909656,0.07526780907021938,0.09524481826158934,-0.029280207223706122,-0.03501580008389229,0.05221777481352843,-0.010270418936453779,0.019215498384808537,0.0036937613957049613,4.177659047341091E-4,0.0,0.0,-0.002324939143125152,-0.07162868955347156,0.029210237565604827,0.1544329473471494,0.17584259443326708,0.21265975158522474,-0.017830003622845366,0.061611373281375524,-0.03603237739443398,0.02568338246960916,-0.17303901133581628,-0.18803442465799547,-0.185517515906294,-0.18416671829780626,-0.035166575515322,-0.07803606422158987,0.0350900502892454,0.05655264737595195,-0.013584422016724903,-0.042255355965491556,-0.06556803689861675,0.06687513579086252,-0.035970783692948594,0.05196600278912044,0.0031984166114686274,0.0,0.0,9.338034703178877E-4,0.0015979267682656258,-0.10192670594139801,-0.003978123667979208,0.01054469151604946,0.10576963182364309,0.22692828727320102,0.10970999077617373,-0.036979468003858075,-0.06793670442359198,0.04112447072103695,0.02040022088448792,-0.07182461338652045,-0.058392108450849536,0.04516319048679722,-0.04524777691758077,0.047843525790108636,0.008538755936450863,0.030956366295580056,-0.09566651806578351,-0.10659350936535487,-0.04259012258526139,0.00987848910779672,-0.007155146699955427,0.02853231373835394,0.009968833531546279,0.0,0.0,0.00204458508185551,-0.0012911948722771052,-0.11161521355774708,-0.04803895499252312,0.0193201790797603,-0.016183176994967265,0.06428210797143089,0.07819664482642424,0.08803480506047434,-0.01713512556858158,0.08418765702539065,0.07772397882199866,0.06795833063670725,0.06139754902822071,-0.09809834462664402,-0.09962950893198222,-0.06710362622461546,-0.08517738698468513,-0.0663412036104603,-0.021047557033416976,-0.06264667818498486,-0.05203664389091216,0.01747602204340358,0.005660836059626983,0.011286553550551985,0.004523486528529276,0.0,0.0,2.669145437873131E-4,-0.01483225948963331,-0.10037359091300986,-0.0857932238646756,0.025252949030436494,-0.06931082439526957,0.021441827116750082,0.11086740024547376,-0.037582391966914305,0.06368205562942304,0.013685393055787759,0.14965736281617972,0.06744385274883825,0.0964376655468619,0.053082179967628894,-0.005713982636594317,-0.033631877454539445,0.11476256013533698,-0.049504088462495745,-0.0022201994794565643,-0.04577357992193719,0.011537706093208203,0.022663887248035877,0.011898648166497161,0.0018429264310778008,0.002099468171364064,0.0,0.0,0.0,-0.019821177134321397,-0.06871231984344416,-0.09110490327950055,-0.03394394489871706,-0.04892720362817556,0.008292703720560329,0.06202566054491134,0.13060276746652089,0.028833941773129514,0.06592716656593363,0.012594566644550512,-0.015827035222049483,0.008798261232403733,0.03110064726569963,0.10179023253760994,0.04835716911809,-0.10313670523551766,-0.0556583004478256,-0.09965666669982937,-0.017864657845958996,0.012558260103713177,-0.002096848884054676,0.006433798027260313,-3.7565874149701246E-4,0.0,0.0,0.0,0.0,-0.007838414889802284,-0.03580618325707186,-0.08764156223601029,-0.006057631362750399,0.034719336872295,0.014718718701147887,0.018932178214784656,-0.06416944096372673,0.16769921262986417,0.12830019336782725,0.0375832910482232,0.18729186972202372,0.08206585016518927,0.12180575620921595,0.18767518088874743,-0.03902519777044087,-0.015508879144628465,-0.03312674977796578,-0.035039441865086486,-0.0022883620029967014,0.013564654704845344,-0.004231681290246478,-0.0020674389863316275,0.0016861870013207326,0.0,0.0,0.0,0.0,-7.974665774345965E-4,-0.016161531089363405,-0.027986547717940777,0.013943610302197677,0.04173237051996014,0.016905197174705188,0.002996560982850826,-0.06742801937611896,0.04632924305212724,0.05548422256399215,0.09835279995271227,0.00569150868801628,0.12293623823621384,0.03060248857993872,0.12048764864401923,0.07409154197936871,0.033219741561839974,0.02301320238925305,0.07351168025493769,0.027621414728095706,0.02880459626613569,0.01838418980307943,0.003957096949047147,0.004312491563777407,0.0,0.0,0.0,0.0,0.0,-0.006065159832447921,-0.013234433386104017,-0.017943774424570298,-0.03141221585543557,-0.06039996045915328,-0.14433658797974663,-0.09256699108480027,-0.08798990231443961,-0.14404871928517024,-0.05067120591059221,-0.02250206398131339,0.0046765102372005605,-0.07137887700918762,0.03351136424564558,0.009603383513691716,0.03569096426097248,0.06219466885048528,0.07414259894718908,0.022239377081162203,-0.01657567487732479,0.001248763304026159,4.75204578734111E-5,7.741647442033638E-5,0.0,0.0,0.0,0.0,0.0,2.8212549520564536E-4,-0.013238827420412925,-0.03489274192617276,-0.0625576662423952,-0.07097790078024555,-0.09269804446307962,-0.1480604982600629,-0.17578888987342145,-0.1518324484060454,-0.14597418200693324,-0.12285361662534833,-0.03689009327510654,-0.0440311298710998,0.011773749563370458,-0.0030982423614252957,0.0012684532425769632,0.02781910434659299,-0.0029408346215061515,-0.03474454910441558,-0.025759801309254666,-0.0019536208935905857,1.9719778460335546E-4,0.0,0.0,0.0,0.0,0.0,0.0,0.0,-0.001589073704644437,-0.012818379833815818,-0.029538854738397805,-0.035738382456304264,-0.0466486675989631,-0.05499198289076096,-0.06345617812625123,-0.007075753588530226,-0.048668265514094367,-0.09245132211242392,-0.06645675773541515,-0.0035199000345965633,-0.0423065593117726,-0.047338043481782194,0.0046373205409526224,0.02709855967629026,0.011039260908901487,-0.007258216678163451,-0.007183382339981767,-0.002731188733401192,0.0,0.0,0.0,0.0,0.0,0.0,0.0,0.0,0.0,0.0,-9.4365748981888E-5,-0.0026174629859476504,-0.009464917117658553,-0.005138596445184689,0.0010988071360242835,4.013359211788875E-4,-0.002080007372181549,-0.006117327343657247,-0.023183861932222265,-0.025299585639408075,-0.029608639320463363,-0.013672375008024686,0.0013512287400894018,0.019197683732326894,0.0076497254898760785,0.0,0.0,0.0,0.0,0.0,0.0,0.0
0.0,0.0,0.0,0.0,0.0,0.0,0.0,0.0,0.0,0.0,0.0,0.0,0.0,0.0,0.0,0.0,0.0,0.0,0.0,0.0,0.0,0.0,0.0,0.0,0.0,0.0,0.0,0.0,0.0,0.0,0.0,0.0,0.0,0.0,0.0,0.0,0.0,5.483587121849751E-4,0.008076456710073157,0.007919963870629288,-0.011029058892029557,-0.009657841279103668,-0.0031836916456638455,-1.9832841352515328E-4,-9.358359914080221E-5,0.0,0.0,0.0,0.0,0.0,0.0,0.0,0.0,0.0,0.0,0.0,0.0,0.0,0.0,0.0,0.0,-0.017580163976950322,-0.02987034859957354,-0.016501170107251117,-0.008527715600379451,-0.008950132873101342,0.0036356529730316666,0.05045153888971642,0.02483120534199429,0.04158321031147794,0.03282279123633497,0.0180216536015759,0.02908179232781465,-0.00456198497089221,-0.034784667586331676,-0.039031698625385934,-0.03228151273590989,-0.00586182838036959,-0.0027899863994282907,0.0020302099985385984,5.8439369321677204E-5,0.0,0.0,0.0,0.0,0.0,0.0,0.0,-8.175904280342811E-5,-0.007320194681983462,-0.025905468458490722,-0.026750932536853275,-0.026670419412131604,-0.011559805203279384,-0.010155254624053594,0.011932569311459982,-0.08535220029352973,-0.03374251736995195,0.010730684839790552,-0.056874462029334695,-0.07709054616129496,-0.05390515502241595,-0.09670324098076755,-0.11201517151567446,-0.10231392336114833,-0.07970377939295538,-0.021366157299230068,-0.00664394721806592,-0.0018539329386398342,-1.2290688068147083E-4,0.0,0.0,0.0,0.0,0.0,0.0034070270065347783,0.006018109445136535,-0.0018284202329353367,-0.036366329153007734,-0.031637817112783184,-0.051921465502845286,-0.06679189146606736,-0.06121210816492042,-0.016607327403724413,-0.02578873456513339,-0.009809036788908295,0.0750016740139295,-0.02428795185341284,-0.0451327360833729,0.07499132171467708,0.11593212173266466,0.13440356344061877,0.004567139421966433,-0.010045870825377775,0.03461230822082765,-0.03551262589526872,-0.027927556200202812,-0.01347093707020021,-0.005622220937731672,0.0,0.0,0.0,-1.1231520996475169E-5,7.852309471391179E-4,-0.0015252130631862677,-0.011935679068545757,-0.03994997720706723,-0.0598407299946451,-0.11699248401680398,-0.15707610690034823,-0.1557397406704268,-0.0972263836629896,-0.033334766283261444,0.007702834427548181,0.05624116358833756,0.060298624289378384,-0.06006556100214037,0.01795606073867553,0.11101236092610364,0.15774069736403148,0.12266059190374251,0.044876499487899964,0.13177647174630225,0.03845514493412513,0.0062856282223834985,-0.010326469525966277,-0.004343299602618282,0.0,0.0,0.0,-1.4621365962927724E-4,-0.002634921942728631,-0.010125524715777493,-0.02145028027349392,-0.07600317483576757,-0.09258044643618349,-0.17144496986746252,-0.12846630166318893,-0.11224947981754078,-0.05108862756269968,-0.007619115142854373,0.031012411068806783,-0.020695021049082607,-0.16568589412077098,0.03968962937203061,-0.03380002063682237,-0.038509061965217466,0.1591094799504356,0.10054503309146534,0.06989708116227544,0.02408785858792479,-0.03284367541787224,-0.01002275921795044,-0.013212488683018771,-0.009116927236023961,-0.002580957829576588,0.0,0.002100186169653912,0.006637262897065822,-0.012925936002074685,-0.027660029300759857,-0.05211069095140288,-0.04249738221469288,-0.11991572925642949,-0.14376509466065843,-0.11230479031964596,-0.1286768284796826,-0.025648558203560358,-0.06479974156916245,0.0442835981340759,-0.0011299612472026282,-0.038698562623270254,0.05503465189540425,0.03960694897487481,0.07130865887516276,0.06464556314779737,0.001454994569410774,-7.90817525942037E-4,-0.055025669253718525,-0.0476635774208443,-0.019698102077061484,-0.023574732573437392,-0.013327241857864231,-0.0022026645889917586,0.0,0.004240512704807185,0.010095618944279839,-0.012766980619433571,-0.03600065292494014,-0.007297679510151159,0.03786275141911043,-0.034368755745508066,-0.012328835458020765,-0.08109301932715392,-0.11455950313573825,-0.10887198248479756,0.08023528263874675,0.060483383636516216,0.11096680616205613,0.026996279709210647,0.04971132554948957,0.052599218081986414,0.12520849223268773,0.052214744886578644,-0.040807054404365516,-0.04869147839309721,-0.07468289501952731,-0.05731101070719514,-0.08381775276452581,-0.030151073560165782,-0.02699507624428265,-3.387584481307224E-4,0.0,0.0020098376010290286,0.011833839761237771,-0.0042518355792261365,-0.014811115776304293,-1.2970030747230595E-4,0.01605159211102096,-0.05098786736280695,0.005770006329193012,-0.06788878009028461,-0.04721571897323966,-0.13461048445840587,-0.037399186962227084,0.035981747889596814,0.20306281427539122,0.12344113079707755,0.03984313639212187,0.06969714063378854,-0.033505882443394495,0.011387002254731186,-0.09663972130778868,-0.04136579184812992,-0.10136327160194712,-0.07096046251246871,-0.07457396853358908,-0.028824217983464462,-0.011826953774829552,-0.004284071390702439,0.0,-5.637425640504785E-4,0.006274617529225402,0.0072498235898348145,-0.0018530743008622153,-0.047807192451203684,-0.014945887987226599,-0.032276521038139605,0.02399515610062946,-0.05991761868014609,-0.14626489953419033,-0.1876804141091409,-0.06941492215279514,0.02446269019595565,0.3267299453048334,0.31615687470192383,0.08834797669071313,-0.11620997176291005,0.05274564956846571,-0.07452786736078319,-0.05220103589477865,-0.018410710868187317,-0.017513904166021395,-0.03676033080696654,-0.06753391127586168,-0.05563845153014238,-0.02911308446963817,-0.006464819705189848,0.0,-2.280512231754343E-4,0.003677925495485591,0.0013328329921303234,-0.0026706519716143823,-0.03472240061547724,-0.02509151633665391,-0.04657351666891091,0.01149253130827767,0.026266157621530516,-0.07934035367438644,-0.14015718902856847,-0.19214505864280781,0.0071084420457725155,0.3080396180533894,0.36279878907430635,-0.1301036246886339,-0.059876106462429274,0.060387525929841195,0.07068703699826026,0.03543868108071875,0.058617461507388106,0.011418388660790112,0.013120852892388384,-0.04357218736383099,-0.06331112781222162,-0.03772206059397127,-0.0011533908790096576,0.0,0.001107231934382723,0.002177996773928206,-0.011555875670666287,-0.012354722690189942,-0.03716579739663423,0.009588098426045005,0.018850799077234016,-0.018808099922802066,0.05475131553438484,0.08580894791091687,-0.19829495047292908,-0.3239734449098927,0.04017771220930069,0.5089869726496822,0.22715733801244353,-0.1720376702985362,-0.1253109577318876,-0.028257716855869256,-0.03046814284655912,0.0056476025622347005,0.00968119413282248,0.04435715067097166,0.08164222284953619,0.0081720252272968,-0.005595573795879987,-0.005513847307091242,0.0,0.0,0.0011586233758454681,0.0010144743409748918,-0.012524535453668972,0.0025583018556243906,-0.008733870741773807,0.021085976989536532,0.024061802680392107,0.02461692622504293,-0.051824187004543304,0.034514946827016106,-0.16866002654377216,-0.397884445992349,0.20334666670767423,0.5925270206045918,0.05907059920622426,-0.07526407404240408,-0.18513593773024672,0.044319693573627354,0.027940944376582608,0.028150326236916687,0.01860219233573272,0.04285873700248133,0.07710436093348519,0.019357813102351233,0.005451467946727788,0.0010905811069515622,0.0,0.0,0.0,0.0,-0.001752531068926981,-0.0010888653108628583,0.021015379060850232,0.013176532516105302,0.03772045956593607,0.029829619170829574,0.0099202685485252,-0.042559794380010105,-0.2667411996091147,-0.3473480716624406,0.35437951120206185,0.2893344633157226,0.1601628733452032,-0.21414452006024548,-0.1004135335253791,0.12385218145316293,0.004662240451751881,0.049156862603205884,0.04327436904199655,0.043651733292902145,0.02457191880614674,-0.017695567055970588,-0.009512930991662203,-0.007589006497600876,0.0,0.0,0.0,0.0,-0.003994379639551875,0.0014448485242080126,0.005242844001490657,0.011643511649332958,0.029541415308211347,0.028483859044125422,-0.007465317979164355,-0.052556755700149775,-0.20643289461732647,-0.17657938501872703,0.2800092371730475,0.36776950317761375,0.05760160763729707,-0.1457447960257208,-0.10058298062689051,0.004166467855353699,-0.020623750876493787,-0.012296130635140496,0.044956570100557446,0.0014367966222866761,-0.017915618324274327,-0.061747737966094424,-0.02898524534431904,-0.014538738183239634,7.448180191216269E-4,0.0,0.0,-0.0037219109712077246,-0.00922945852428329,0.005544161881726933,-0.016143582653623565,0.008479409556340791,0.04952962451684352,-0.024262347083132824,-0.050578763574445386,-0.13831097526827688,-0.023132015889711803,0.0228765934871139,0.23187874167741024,0.2605504582337523,-0.031224715436035565,-0.14642068644947084,-0.017849467449368543,-0.009230956064745444,-0.03225088120908624,-0.031019200480935556,0.02963736584170287,-0.010877845937767644,0.02616054534010479,0.004765331253786095,-0.022132556213830475,-0.009199988128944387,3.201368346707873E-4,0.0,0.0,-0.015770081131320304,-0.022324319466395758,-0.012945208302005556,-0.022644620093329265,-0.011735605815981329,0.006224843164951935,-0.06911638287643758,-0.08820937475554858,-0.12699753627414564,-0.048656744996275036,0.02968182087606974,0.19795533012728975,0.26279742598497513,-0.08193605617403665,-0.10868272833684159,-0.09561101192603655,-0.036977123624668505,-0.002073262077648928,0.0343784756056402,0.03735384717651033,-0.04899607918900122,-0.002120120175794234,-0.07229434822008649,-0.03692518660564297,-0.007755904289794022,0.0,0.0,-0.00382080431379272,-0.021947945436424348,-0.0306151949813988,-0.021352204696248375,-0.03851083729088681,-0.06588689718891082,-0.12259257890963507,-0.0285925564828724,0.024226245919040594,-0.0947774054150843,0.1157412914255172,0.16950579354535403,0.23620584898269426,0.1989267458133755,0.07626948992134376,-0.07974314595056639,-0.03535858382584328,-0.10798746137869157,0.08024214290546872,-0.01610519469834223,-0.021184119544466713,-0.0027089885378384342,-0.036254353413239127,-0.011271797306460886,-0.02417202806932468,-0.024797654372977197,0.0,0.0,-0.007669176782570513,-0.01733606480792773,-0.02487031332488689,-0.06310130982479538,-0.10351975773429777,-0.07144703509491683,-0.1205079659644859,-0.0024848873409464736,-0.0072047376060302044,0.003842677977852177,4.1235654103147614E-4,0.19868244039626368,0.06605906414169394,0.13352640056656417,-0.05303950060313629,-0.05747462532177668,-0.06430229852095459,-0.0984816420362794,0.027869643235144088,-0.03284446033208998,-0.028726333632123766,-0.05767298933314479,-0.0610792978086403,-0.05395513980660742,-0.022660447843339242,-0.010924426990830075,0.0,0.0,-0.0010930163522870646,-0.015755460412232105,-0.020401927520871707,-0.05393546836184024,-0.14691434621976956,-0.1600376413678886,-0.0515178305369516,0.023588927190868633,-0.03466534080402032,-0.008054854328941409,0.10225640211185899,-0.001896084829059427,0.05980739162343757,0.22690435488688807,0.059192820111457656,0.08800564320507126,-0.05624239638335542,-0.06869853800213746,-0.11424210085614707,-0.023162293825020185,-0.017503137446395506,-0.1031961482393675,-0.07419710186665417,-0.03461930922352133,-0.0057958655046666694,-0.0013362627136031804,0.0,0.0,0.0,-0.0231311215362465,-0.019193924458711126,-0.05715459966775585,-0.11016415669408423,-0.06693042699790162,0.008303298628689056,0.003460313282493186,-0.01678390799326439,0.04499706325456199,0.01854154817004715,-0.030584315326225277,-0.06125444871479393,0.060869338616498056,-0.01711006015851824,0.10298019261435329,-0.006962260822801699,0.013503337596427693,-0.059736942154019465,0.007578213558125761,-0.019128172862331743,-0.053333853736333696,-0.036503085564825344,-0.04697074255894171,-0.001504379978799982,0.0,0.0,0.0,0.0,-0.011714420788377098,-0.011221905975852767,-0.05053304569969484,-0.030914423071209444,0.014306360201656407,0.09845133074010688,0.016714716220578307,0.0022185344505140574,0.05131043115159816,-0.008271089320113079,-0.19513627231169023,0.03141316421899336,0.05685316434303589,-0.04297155512041938,0.10021010555496332,0.07803515812276363,0.0522876759730239,-0.029269739028924234,-0.012368894930699438,0.010952050577060045,0.032216381890094806,0.005404416506402936,-0.014671447336496174,-0.0036214362880090047,0.0,0.0,0.0,0.0,-0.0024055996351399667,-0.015892479732706848,-0.033949423682923474,0.055706593419658855,0.13105285548775533,0.14149429320760987,-0.007501802278321244,-0.00474460737865508,-0.0016224877654382698,0.07291487447041789,0.027224997281819013,-0.007371349817932404,0.12031988880476577,0.11586044229145788,0.18824900783755041,0.22866030071670174,0.053348999559593345,0.004265740842231827,0.011825295206474936,0.029766036188131038,0.03480098605479142,0.0021235330626633636,-0.008562015760563597,-0.011141019862983072,0.0,0.0,0.0,0.0,0.0,-0.008361356613432633,-0.029723003224075412,0.036364323182217245,0.023688645054853654,-0.09270773253654041,-0.1264248921290953,0.001479378231193031,-0.088915236001655,-0.15700513397871074,-0.14822500197515964,-0.07040304329361423,-0.07027168543938687,-0.015658759331859413,-0.07822520342375482,9.00993838054773E-4,0.09445431512157249,0.050323492608284094,0.05141516691969351,0.012974248832163904,0.011089130650611666,0.0015334639387886014,-1.4518262260417453E-5,-1.988928075553526E-4,0.0,0.0,0.0,0.0,0.0,2.0002677619796952E-4,-0.010296279138767479,-0.038307162215327865,-0.06620570727018449,-0.14265878427370954,-0.16686820796110138,-0.16783227011701676,-0.07636245511828973,-0.011474307307981945,-0.04389144039049989,-0.049806019792896825,-0.0969066346649119,0.010946083426348794,-0.02542530213331322,-0.04815830833531908,-0.005047336141856413,0.007624500582559514,0.015555323669354625,0.004743570796603321,-0.003045465327298391,0.0012472050117120533,0.00145424422578473,0.0,0.0,0.0,0.0,0.0,0.0,0.0,-8.058844995409114E-4,-0.011765251849329738,-0.025403925108407274,-0.03747845333474498,-0.023681605261269816,-1.0014915967687477E-5,0.01938208064501367,-0.0034312213053325122,0.055639277209150996,0.0940315494771581,0.06677703585281589,-0.005869711224639917,-0.044562619246557834,-0.031392193256603355,-0.014979044194035267,-0.02356210454742562,-0.010316422935421989,0.002336759247892336,-0.001004648351889906,-5.66302505649846E-4,0.0,0.0,0.0,0.0,0.0,0.0,0.0,0.0,0.0,0.0,2.4331234890714713E-4,0.0055636387254570955,0.013385929573155873,0.011689871459689515,0.0036652997903099337,6.810564395074347E-4,0.002185521080622662,0.0065061105729408595,0.004619648931846206,-0.0022094939180376996,-0.006148728397932836,-0.004356352919214583,-2.4939825918160933E-5,0.0033620517025767225,0.0013541530543672116,0.0,0.0,0.0,0.0,0.0,0.0,0.0
0.0,0.0,0.0,0.0,0.0,0.0,0.0,0.0,0.0,0.0,0.0,0.0,0.0,0.0,0.0,0.0,0.0,0.0,0.0,0.0,0.0,0.0,0.0,0.0,0.0,0.0,0.0,0.0,0.0,0.0,0.0,0.0,0.0,0.0,0.0,0.0,0.0,-4.1453715639010587E-4,-0.008950999195973353,-0.02376910094859339,-0.027771005456915666,-0.015916071784491406,-0.006522033795112996,-0.016607446684907202,-0.003924084472763973,0.0,0.0,0.0,0.0,0.0,0.0,0.0,0.0,0.0,0.0,0.0,0.0,0.0,0.0,0.0,0.0,0.010598959288315049,0.014369093206506053,0.008050182874437857,-0.011595992543883753,-0.025397446027829344,-0.04883721331993373,-0.0665753433488563,-0.08689651159419712,-0.19516420355637631,-0.22305901780839577,-0.16261909986810866,-0.08666234971107424,-0.08386229491861025,-0.07855174429026111,-0.07066081404908718,-0.06724434792981424,-0.038387218420996225,-0.027374618297391552,-0.007019466181888496,-2.0742092508758657E-4,0.0,0.0,0.0,0.0,0.0,0.0,0.0,-8.73361728512376E-4,0.00414358243604347,0.022122399702510124,0.031602294245455055,0.004065929612041937,0.020474525037029203,0.006005289524061467,0.02273828701024532,0.09782148366022751,0.0782391628248106,0.03143615837002908,-0.023937649232362305,-0.025227653474903387,0.05953784749285607,-0.020864495284730403,-0.07589442787332852,-0.12388374614182565,-0.07114517452581154,-0.04103520908071466,-0.016059548448854398,-0.015831045422229493,-0.0034340624238886844,0.0,0.0,0.0,0.0,0.0,8.861745661078881E-5,-3.6756215036879905E-4,0.00325271060314753,0.04653269160578438,0.030293355006990867,0.012693163002555678,0.1630750769392088,0.22938878010468983,0.2169179004326286,0.30116905590037574,0.35579706626736035,0.26932717945063506,0.27509334491047327,0.18357435496962807,0.13423452413780312,-0.030674352707526078,-0.0692403518588098,-0.0029907650387126982,-0.04014673351396307,-0.0732987610020463,-0.029971458663475326,-0.02093859828816166,-0.013817009269968657,-0.005539728149584492,0.0,0.0,0.0,-2.0877117234015613E-5,-8.83057490684982E-4,-0.01972290444725234,-0.05036107227378531,-0.008981876642755297,0.039477129037904284,0.21923210858698652,0.2708509217054687,0.19402951836648924,0.10811662207760428,0.11963305388308336,0.13837718303247556,0.1256393227190298,0.15723528135277617,0.09953370479995768,0.1088012091269321,0.11400450681872512,-0.003391205929897956,0.008245694345617734,-0.005647244483344257,-0.0734964781726535,-0.014979236601487993,-0.045145156061308894,-0.014637172855759738,-0.008388998658390842,0.0,0.0,0.0,-2.708091949133693E-4,-0.010687430232549198,-0.014839741850297005,-0.007623537349015323,0.07237111548325999,0.11839477829156295,0.13739403750513807,0.16250914663182978,0.1387395920151484,0.10834835535173828,0.08216039157186811,0.07363892977119221,0.048507120903233295,-0.002727389077584873,0.16030866832439,0.05492073263012729,0.21088975020287015,-0.07846340653490615,0.022916489651178144,0.06863795121145995,0.017705610767572745,-0.004940813694189053,-0.013549122145125539,-0.03845773234746964,-0.006535517309598734,0.0012571792492373588,0.0,-0.0029940073831636717,-0.0038937328028929934,-0.02602986009553421,-0.0642229377678516,0.055082694484808015,0.05545518806891575,0.08451719252704382,0.001063113463619537,-0.04344892155155057,-0.03201436089553563,0.07275865937889471,0.0941355900893754,0.07519488544918296,0.024843328406830335,0.06348081930013184,0.1159232926153287,-0.05673615427627618,-0.04990502297785089,0.05072951464931387,0.04209101625783702,-0.001345651283819314,0.05652986395825642,-0.035539445013467286,-0.047409630472436855,-0.007503221068070131,0.012942194177405953,0.0010552894343616834,0.0,-0.0067517501286155955,-0.00974134012467357,-0.006836732565623897,-0.03296082537172351,0.03294614557239749,-0.0711972045313144,-0.09819711155442702,0.028324431202259852,0.0657481025236778,-0.07683022972261074,-0.09730156353820633,-0.10204940561126434,0.0015168049574599111,0.01131218740294554,0.030908033356850537,-0.028153118314055436,-0.012553571863945352,0.05652846517581936,0.07528650844347243,-0.033766175622139113,0.031153731852561376,0.006661451803529407,-0.05180423449061906,-0.08737454726383852,0.013721309127172725,0.013118843457034143,1.653943775176612E-4,0.0,-0.009565308337343958,-0.01355547296203309,0.013825273363540586,0.019346591046675576,0.06072218570857027,-0.00621628016654462,-0.10669120151838477,-0.054228754858974826,-0.12061051495481039,-0.039850402751500716,0.09140462585503632,-0.02988316544041538,0.10808582436053531,0.10574459799421973,0.056460816120621836,0.05658116422933298,0.11479366803961542,0.02848159001095797,0.07368669582804231,0.04250965308889952,-0.0919964682147178,0.04564008792396804,-0.09132235027392774,-0.07150301839754643,-0.006044186458051672,0.0014441674125622854,0.0025168771315582966,0.0,-0.0014275956177188683,-0.012006267969816417,0.01602986539339088,-0.0033355969352856962,0.041518776169250746,-0.08285763690667788,-0.0758728138275806,0.08237323582433073,0.00840191924167412,-0.01759601283140847,-0.042312951817892214,-0.027933400431183936,-0.1064720946367284,-0.07526997739777942,-0.04579928860018406,0.015507843929845907,0.029078138287094376,0.056512945473060405,-0.017143903269238744,-0.038379646099501175,-0.01367487773035018,0.014840771364447386,-0.09342462798937741,0.013448698600954332,0.03669109404881102,0.0233717556310951,0.015716362193377072,0.0,-0.0036855390388649697,-0.018047711270954524,0.017723270941263893,0.008642866615057537,-0.0018692582040880262,-0.07286882422389372,-0.04819223972892231,-0.10968880454198161,-0.04495759426639547,-0.15917375732788916,-0.1673947008945095,-0.1797271291419408,-0.24800983334686827,-0.13337295604510904,-0.08945208583198358,0.07473266100075471,0.1024931762008322,-0.018903531213079586,0.04521039459396781,0.07822735227242965,-6.416741023443741E-4,-0.13093562357347796,-0.1263178501344445,0.014924805439489831,0.05834364607857276,0.05394710631092806,-1.4734809552147135E-4,0.0,-0.0014532477201826342,-0.01401344158149188,0.04627776775402024,0.024002158028378538,-0.04209547659677409,-0.018586991721628147,-0.09028676424449433,-0.11076523807337185,-0.13371145683115881,-0.17264348905590285,-0.19123821851986356,-0.22837887727026182,-0.2030075596241086,-0.2800414835311314,-0.15613744354682255,0.07499971035207932,-0.0693041388203452,-0.008799295559226141,-0.02478360050946888,0.08040042867804743,-0.03062588338139688,-0.16584947939354772,-0.11786316702707877,-0.02619983786765443,-0.002706046104882562,0.004811437529308501,0.0,0.0,-6.234367462780931E-4,-0.00543470646566263,0.07977548122506024,0.009565735545239607,-0.04957688727599566,-0.08697239121944889,-0.17955626102576058,-0.10894416794425589,-0.11302058279354671,-0.1488482207929331,-0.1777459044810277,-0.12798175471378387,-0.12286509222360405,-0.055731036701668825,-0.13175604350906098,-0.03916681007971363,-0.03492629327167245,-0.052820127569859224,0.08998981728015701,-0.048093014246925116,-0.09014308167431025,-0.16248600700546034,-0.13916953942290236,-0.125453536112132,-0.028729930561190574,-0.00467488861300633,0.0,0.0,0.0,0.0,0.023992457130891057,0.005732435594427042,-0.014585040987231276,-0.1239139381626549,-0.05431985901047504,-0.14394369689801384,-0.1407428236372725,0.043003033543816356,0.02346313303749469,0.10081834004043332,-0.08704900215992842,0.20117599654704507,-0.14451043892192994,-0.06904892965507342,0.09125952483687413,0.06755143261932846,0.074633239728708,-0.0887042928844089,-0.18498928149325095,-0.21527071004041995,-0.18182539344639373,-0.11093513924058264,0.018748367389580894,0.014696216189706785,0.0,0.0,0.0,0.0,0.027651382101882133,0.04259502086972139,-0.10027614974882608,-0.035833838730910186,-0.09168267482274967,-0.006546750135447219,-0.024533044021477744,-0.014582314935337798,0.12051349674757197,0.08012676099090045,0.12534212154320926,-0.07367231425097229,-0.13081957703038205,0.005093873924300447,-0.004996417832291358,0.014154592440054525,-0.1303247587749183,-0.16780019228132692,-0.1369378029728376,-0.17709027446166398,-0.14500411260104093,-0.05133393215293301,0.09944544586449022,0.03795515267222117,-0.001965696590070977,0.0,0.0,-0.00990870913191889,-8.922649890451682E-4,0.08915697482679369,0.021473008320447882,0.17897879652992182,0.01731243152611524,0.020056921704442926,0.0998771103039792,0.12140974749561426,0.0755908644625599,0.11790918081306982,0.09499491638892435,-0.06626467102869675,0.03224657936768462,0.13235977255201095,0.06682389018824052,-0.0241094969284135,0.009356483203034623,-0.07274818143385432,-0.11057273337743068,-0.05587835230331271,-0.11025255919394501,0.03314477735824902,0.11478289730521965,0.0017089916439677242,-8.595558564828513E-4,0.0,0.0,-0.014792191785002445,-0.01963621188253824,0.10958736156187888,0.2555452694034755,0.23335003890346281,0.07781701288489849,0.0017695624151312856,0.03411153287347744,-0.0176436869832147,0.016941045288024925,0.14231285317040407,0.10232893062842414,0.10623176746586108,0.2175071807648783,0.24603076462065163,0.0019828996154440484,-0.09534489450284084,-0.1477398767098034,-0.15623258358310166,-0.03278977770421309,-0.019022844559453394,0.11473395519813119,0.2767970847028182,0.20568363734671982,0.020701313130910053,0.0,0.0,0.01564375515267523,-0.006049048404189092,-0.06235317925116661,0.10842317819150626,0.23493192172839475,0.18140301197344158,0.16274379733334743,0.18971209073890447,-0.05037550229339991,-0.06504446317956797,0.06649110327763749,0.03714232981379922,0.11918600881080123,0.3350434559466374,0.13689202301335848,0.020952403928018972,0.03305699001756196,-0.02838171250917141,0.040037360888633765,0.1694972102022317,0.0999405279014541,0.0979106637469871,0.35051199867023364,0.2804863896937811,0.15672194018433075,0.07099480187672703,0.0,0.0,0.03169784875288281,-0.012429463253718838,-0.07998397593111767,0.06707300627230618,0.2236749556675832,0.15297932285337135,0.1114866205729101,0.17976118837770336,0.16766599820651826,0.1519962074418059,0.24094584215272197,0.017220309604668894,0.043880113570024144,0.017112392327238605,0.12042803180560016,0.13387741132563083,0.1364370606296241,0.09201182779464188,0.04832428906703294,0.1603612448070505,0.15803807649701,0.3661599969367913,0.4091557544937856,0.2771151768211559,0.09959750338881174,0.040411617252341166,0.0,0.0,0.004468205361371171,-0.043685170532866406,-0.06544608458042465,0.050534727923147414,0.21783304270265275,0.11706003111237841,0.2184387989494443,0.1301925196700245,0.27107256737175595,0.07780488086980455,-0.04195475052302902,-0.019426864823559768,-0.16923550058432274,-0.015396017124071978,-0.006939105319958429,0.03298251403376663,0.10319957322995915,0.2308565624851818,0.04928933682195783,0.03778236390868561,0.3069817379842038,0.4503650945668354,0.3571537994250867,0.18087291916993256,0.05405802425407829,0.012139654911967857,0.0,0.0,0.0,-0.03781663807784525,-0.0394326487469466,0.13220323911696746,0.22742799937612346,0.2735980747698581,0.12295546989658009,0.10024221309270621,-0.08738515037405276,-0.02424068218403074,-0.09579139700321897,-0.10394800771258769,-0.09346332562127914,-0.19261597450993342,-0.1511373613584301,-0.12903747830200485,-0.03592349586465432,0.030506491781867477,0.2371283529009112,0.09815973678017301,0.19761013799901747,0.2767027493413069,0.23030643419774705,0.1631093924611847,0.02909993767268407,0.0,0.0,0.0,0.0,-0.007644534091621206,-0.028403743419820965,0.09334429202728234,0.14395335124368408,0.0392863374705245,0.009226689090874127,0.040927168651589164,0.12130104081828291,0.014231421907868507,-0.0178625677572402,0.12702973845545223,-0.00894046332700075,-0.021859137121594797,-0.09733514915720039,-0.08863688063187353,-0.14173298106282564,-0.10786949273556044,0.06517017759873003,0.18546522935890372,0.20583147433212007,0.155163114290788,0.09156229513174298,0.08689502556671538,0.02474899472445573,0.0,0.0,0.0,0.0,-4.064268040919309E-4,0.015109465543556378,-7.87964156527305E-4,-0.012902094887625917,-0.085077998729651,-0.13843292392870116,-0.03822276767829671,-0.04995808915136243,-0.0956106748520416,-0.20389125815927098,-0.26261414236898306,-0.18986331996265884,-0.11266568823679701,-0.07516455886201816,-0.16559497362508843,-0.044553541093844976,-0.11240924225751776,-0.010024516868758906,0.06777366393308897,0.06596815569746495,0.007682101444537754,0.015250468190619074,0.05259229104053321,0.049559107827616335,0.0,0.0,0.0,0.0,0.0,0.0018811723199086132,-0.01829332192191573,-0.07533325155057254,-0.09155799359267117,-0.08144739477253285,-0.05077446932663153,-0.06826749505095808,-0.04218043765038574,0.06756252078979201,0.10667152027122244,0.10738447433133642,0.12987849653170802,0.06034241444702987,0.0423618525771642,0.01209793919487401,-0.06354167952035691,-0.08441986830794043,-0.10713852595705614,-0.010670110655543491,-0.020223413133695328,-0.008944414401579144,3.316065474816764E-4,8.844965420490318E-4,0.0,0.0,0.0,0.0,0.0,-5.434175134787677E-4,-0.025587841159439358,-0.018484714989508745,-0.015836610492749714,-0.026208757054463804,-0.04519967297628805,-0.02090085293934236,0.038340875494691576,0.04872506424287316,0.03892042728007291,0.036228594094930226,0.05190393967071989,0.0496989252220128,0.05983257506211429,0.07491269586037776,0.04037325626400309,0.010810850231156457,-0.028671471520748937,-0.010256657106260404,-0.00807916475590884,-0.00243045512750609,-0.0019560752998133476,0.0,0.0,0.0,0.0,0.0,0.0,0.0,-7.684752245677368E-4,0.00901693738880528,0.002970084720522506,-8.175162847733392E-5,-0.008670492186828383,0.004074311400469621,-0.0014405052442970012,-0.02055254158650613,-0.030486590385874517,0.015934886132068546,0.015010641189905225,0.046749883308073024,0.06018127105284842,0.023714492825589673,0.04822704276483885,0.05465447718965563,0.03187276181127884,0.012311739078399601,-5.031856754217406E-4,-4.62236965154865E-5,0.0,0.0,0.0,0.0,0.0,0.0,0.0,0.0,0.0,0.0,-2.7140988548524575E-4,-0.0020049122823052956,6.549611603706095E-4,-0.006443036054144974,-0.001043269023349402,7.491194131018049E-5,6.716220830972698E-4,-0.0027274133227175325,-0.0021311270329214577,0.010743812507481259,0.01070270603363206,0.007632306782619457,0.00347210028971635,0.020438733682853986,0.008153708628175804,0.0,0.0,0.0,0.0,0.0,0.0,0.0
0.0,0.0,0.0,0.0,0.0,0.0,0.0,0.0,0.0,0.0,0.0,0.0,0.0,0.0,0.0,0.0,0.0,0.0,0.0,0.0,0.0,0.0,0.0,0.0,0.0,0.0,0.0,0.0,0.0,0.0,0.0,0.0,0.0,0.0,0.0,0.0,0.0,2.462487368902651E-4,0.006077759530575051,0.024123799563816557,0.030389940065657168,0.01646959621446494,0.009857080969476155,0.010772370438991994,0.0025562492777787132,0.0,0.0,0.0,0.0,0.0,0.0,0.0,0.0,0.0,0.0,0.0,0.0,0.0,0.0,0.0,0.0,2.773612719675039E-4,-0.0016053082808217102,-0.0012807825968208571,-0.006465773783320581,0.008638960489640407,0.034725506886393004,0.04202125874296959,0.039977205754176966,0.06386664490224889,0.07613867601534056,0.05550171812025854,0.07060110999568305,0.07215207300606824,0.04213010936721098,0.016608209395941077,0.026260526892579156,0.01784761368995837,0.013295134044375332,0.007241822401768053,2.1016232322686862E-4,0.0,0.0,0.0,0.0,0.0,0.0,0.0,0.0014640751377688606,0.019803528542341454,0.014709097529793838,-0.013688011706502513,-0.019950771336828845,-0.02795554728977266,-0.008334917538023892,-0.019662422554826108,0.026894423372700812,0.045375694138841426,0.0701813086682463,0.10978462781210113,0.12094727576481075,0.024416407456005842,0.04595551935195536,0.06849113184851956,0.13158732524063338,0.09151140967935753,0.04204550605977732,0.010365718565889562,0.004347368637334749,8.787144212483218E-4,0.0,0.0,0.0,0.0,0.0,-0.007165294885285222,-0.011715369618372877,1.2820246018833392E-4,-0.01774345043129355,0.016646940270920646,0.11535303022069539,0.12227855937776225,0.13622759896539494,0.10810748303618645,0.06149924068975682,-0.09305635936300598,-0.11470632221541117,-0.1238271593835383,-0.0014201374778553234,0.007937915130042059,0.0203090043054883,0.00242152989547955,0.004320526239031834,0.02663912569664672,-0.007883696102355052,-9.657585341449953E-4,0.024229184847968523,0.013543861493357559,0.01000644553022755,0.0,0.0,0.0,-1.4239218992987932E-5,-6.902864214810544E-4,0.02877081065366395,0.09747513040917818,0.10584405919888001,0.14356695152330481,0.0786312836596955,0.10538955801635627,0.10534412707464107,0.19639592925063087,0.28103692586141515,0.15007270347582471,0.0730623752324304,-0.10438673991103398,-0.06536911815589608,-0.12810185204046565,-0.14600097769144074,-0.028421655315255884,-0.15371095152063938,-0.05637725641513172,-0.13876330206801202,-0.07239734974816761,-0.0035558273795001406,0.008695439568697342,0.007893035675050624,0.0,0.0,0.0,-1.8470778516624882E-4,0.03488165853045951,0.07967181279070852,0.18870992295997574,0.1913706092142032,0.1956536289988861,0.1219534891875054,0.0898471228375352,0.259091569966721,0.14023912328362992,0.1791194545851712,0.2013771922973778,0.16462057901737845,0.07118971378629049,-0.014316115656260462,-0.09162296187200739,0.013948529245074118,-0.03855420302405625,-0.09339904617660674,-0.008658681675054644,-0.03886187890036683,-0.05850214485276239,-0.048433043228306945,0.01495511022847494,0.015729858527056783,0.002342681837123411,0.0,-0.0052287130332117765,-0.019625185400901992,0.05952257252858355,0.13342490675334853,0.171147629951079,0.11511397241666445,0.055471720714148604,0.04183461292561316,-0.025065892001598995,0.047039358720775346,-0.044857912159901245,-0.12090854565244177,0.04709950710424788,-0.02415404317554743,0.09115115245250388,-0.010536520241616117,-0.006001234341941143,0.03796998959468256,-0.0074371523722104385,-0.024541789338276856,-0.03405868718332099,-0.05839310458443925,-0.04233584576480106,0.02396127237602485,0.05277553322895226,0.01910911017517284,0.0020194050641805074,0.0,-0.011942373678449174,-0.0467562279883731,0.07630625524925717,0.14125953956400888,0.03747112944281601,0.06968624310543715,-0.05979916410596176,-0.11909671526133607,0.045831578625270514,-0.13737910420354477,0.024450268601396926,-0.055868144056858776,0.04184227346388692,0.00864583435428985,-0.04031612338569449,0.06523213437489274,-0.07189598024360062,0.011724623189577071,-0.0029575586284293098,0.06520451237074172,0.012396611899636041,0.025668225241538976,0.01742166470781236,0.018648289001637734,0.0030791733795346526,0.009579425637305326,3.1285460541132144E-4,0.0,-0.01901745153958466,-0.03708307390922423,0.03231347497831261,0.006693431709029356,-0.09536516455671225,-0.10700170032482469,-0.15416265908805604,-0.12400343242729742,-0.15257217258378306,-0.13771599926715017,0.05363485555500531,-0.18638176715809662,-0.15371978682338447,-0.09369757657717778,0.07669929083176553,0.060291919137090734,0.2352050367782503,0.05094660817328529,0.23895936646128368,0.07091609196404297,0.15225621178705,0.04416155743705317,0.04290000499292694,0.003531382365674504,0.009243637281802839,0.025886467404151056,0.008087240813589249,0.0,-0.0028778385642502587,-0.024796909421845276,0.03725400355700173,0.010234201457262688,-0.018472998074891313,0.030708673834130253,-0.07882704455174211,-0.21188820869080785,-0.33284457154537506,-0.2792365102979804,-0.133337817521141,-0.12341917152255945,-0.0019672690984834876,0.07403126400180246,0.15410596673092522,0.09497177436073796,0.16840631337371118,-0.031064198320903576,0.07136602091264603,0.020038302466412593,0.014515226366437442,-0.0897807478147507,0.03340849277150257,0.0015666362334993801,0.04038661280009346,0.062488243404163174,0.012880944715552354,0.0,-0.0042731652145333926,-0.040189465876971954,-0.003847044378891096,-0.03215989193294258,0.027892864372552766,-0.040466392626217505,-0.1650611908602245,-0.16789529938542838,-0.18442391762552765,-0.14441212497824124,-0.17747655224339975,-0.05000748522155042,0.1216675812847863,0.17897758121557447,0.3555248817492409,0.16196034471080942,0.015051569862929253,0.021573965831419337,0.004181186196612289,-0.010200573754197514,0.019770182522856478,-0.007528211452855428,-0.0222492138827391,0.017450978212937923,0.049070915177713635,0.032946609801698494,0.0021484659527791126,0.0,-0.010729229451838036,-0.03204408835560191,-0.003296608172572346,-0.01715312536751145,-0.025088128094760676,-0.08276757517536087,-0.14090096558219617,-0.07417694591653992,-0.020137430780795006,-0.16624666262495735,-0.0723491476192901,0.0728260806063583,0.1810642104973736,0.1587538980984792,0.10012643557365775,0.14013754371014203,-0.05967404305257565,-0.006302501632802515,0.020409461691762377,-0.05945927673240025,-0.06817332290339852,-0.011048160477733661,-0.02725011592319717,0.017528410997796708,0.010246824084260957,0.005951104453915928,0.0,0.0,-0.010037899143204753,-0.012268682901345213,-0.009471948182835864,-0.04417233786248184,-0.053918550137565906,-0.06541756793422428,-0.00852682619556438,-0.00844621211695507,-0.031313980565056056,-0.10659852224994674,0.16585500950339171,0.33738270655368574,0.18981686304872228,-0.16069340606841195,-0.06215142820762815,0.19606539005237483,0.30243497505748496,0.03739802611533913,-0.12145864445608505,-0.10721462381132384,-0.07278527245976406,-0.04437398377648826,-0.014918716435395949,0.017530410407533694,0.013552302239816872,0.00991875501711513,0.0,0.0,0.0,0.0,-0.013484188836690425,-0.0432600997663003,-0.012764479697123129,0.05661856599348904,0.049251825742391966,0.05567506219073607,0.09369681013995736,0.06561200868391494,0.08006874580955306,0.04793110414095713,-0.09389200304254684,-0.043805011000815325,-0.03761924769942556,0.1370351143388352,0.1538296994500368,0.16341470771328184,0.18782540449995114,-0.03166675074052877,-0.02374665422200605,-0.04670641955961289,0.07537919770632434,0.0638965470178905,0.014672382595543496,-0.00161513726351699,0.0,0.0,0.0,0.0,-0.01848580927862352,-0.03944285893942939,-1.3644584469397667E-4,0.03712744509044514,-0.027152536549471255,-0.11349515524360566,-0.006202387171507034,-0.13319050819903522,-0.08298610017388777,0.18381776499539762,0.0516006007695024,-0.011699592606084408,-0.10818743139551458,0.11159094003732671,0.1848760055742178,0.08008061993446486,-0.01766077901337015,0.03303601189124684,0.022165181742457025,0.09536869379107482,0.016927217271235993,0.053988195464213296,0.013837480583324192,0.002016139033624697,3.024834674899822E-4,0.0,0.0,0.03845307835178626,0.057711725707893125,-0.01956623382161182,-0.01854856593692675,-0.07009084050152851,-0.008761668460087182,-0.15227778979504092,0.029904334331279495,-0.11920534424691545,-0.09954463356758247,-0.07710803490959035,-0.08897781945459382,0.03657297674193526,-0.026145104601479504,-0.12946771613022126,0.03382370796877431,0.15082281285026244,0.14098980969863834,0.07820388715055604,0.12674870293394047,0.12406491989022385,0.03953970828249263,0.007484397213927501,0.011199212779030522,-1.7756027578800197E-4,1.324044284617006E-4,0.0,0.0,0.05749798450664729,0.16818880437986225,0.0650314106341048,-0.0735189756263637,-0.13106261368004865,0.025632663203508807,-0.05056832710545679,-0.03121249351650907,0.023165737350367428,-0.18807298110385637,-0.13845916401081126,-0.11169972839058524,-0.11154709264459296,-0.14706527970066693,0.08923416954200598,0.14215336653644198,0.09383759133380425,0.12238662646978933,0.2140177078733496,0.19455522938508726,0.10172427692368856,-0.023546830427400692,-0.005741985194411839,-0.019095437252364608,0.0026310600362974227,0.0,0.0,-0.0023056385816901085,0.05981898897745414,0.213015988968192,0.14782071293071372,-0.03847812451322642,0.012468829442616212,-0.07055246213040996,-4.89970392386416E-4,0.00207586859783342,-0.06684834929967139,-0.2588830809163355,-0.20400021389563097,-0.2178895485722415,-0.08366067006205039,-0.15965177731137503,-0.009268398693880181,0.12491875731716968,0.18393982273086246,0.06680765152444441,0.01223374501141084,0.25715953026758614,0.09965241240531764,-0.07495978142733122,-0.08491773834864112,-0.05475179624987206,0.00953457404112926,0.0,0.0,-0.004517381149370133,0.07093116032430137,0.2186013437583378,0.16442757012169532,-0.07195432776787053,0.04591664900348921,-0.07771481372888919,-0.16289332977136245,-0.1768834016871985,-0.16111186448170464,-0.09081734377755302,-0.09066472956182393,-0.13162211959491055,-0.2018175270252226,0.016921748390680193,0.03921213047297285,0.1779864927717166,0.1593801846741177,0.10980402394138666,-0.06303539139215926,0.15043966610230222,-0.043664945559888285,-0.1121761353106813,-0.09693843075344045,-0.023972606876952362,0.006136299403630468,0.0,0.0,-6.591723532878392E-4,0.06775689927012926,0.2072030644821244,0.21956053895320896,0.12630718249957126,0.0981165807196323,-0.0010789074345317925,-0.08278575122033247,-0.1999089543491259,-0.12704466605062378,-0.09626354929624435,-0.18644906628796531,-0.0584560836675698,-0.15133935432126888,-0.017458423118165953,0.05777587891452726,-0.025083174086239914,0.05791069983566639,0.0456868616517086,-0.056577205730448075,0.0031696391111396016,-0.12053879909999504,-0.1813555554556346,-0.04939380978692822,0.005534423179833977,0.0041191554719670264,0.0,0.0,0.0,0.05820727597299317,0.19483896021513047,0.2345430990092043,0.1516468830826338,0.07705018380040109,0.10498348077358549,0.15452885373356992,0.023269187696397634,0.07523191361330804,0.013863911999248444,0.06511508443882241,0.10307859431366316,0.1418509493335457,0.12337514107772378,-0.0383959655560609,0.15195964803413495,0.05801298230215805,-0.0635796911082856,0.0020805032893441927,-0.011604679868491487,-0.09007276249806723,-0.15455558019877905,-0.05425470483190315,0.0011659945647741327,0.0,0.0,0.0,0.0,0.00826965145797253,0.08515583044939115,0.21180145667484318,0.1752083068754422,0.15238800134316052,0.11690707934908298,0.07310271990241313,0.05746936913229901,0.08616260994608305,0.09088411386378031,-0.0034324725484358573,0.009834241638075532,-0.051649785805666225,-0.0067030869895893935,0.009043312086399285,-0.029403373287868,-0.02374759299143198,0.030299642265420552,-0.007988430516375596,-0.07206586395633273,-0.1041450021673968,-0.08289136632804843,-0.031421334111633725,-0.0016622225958208513,0.0,0.0,0.0,0.0,0.002222538919802617,0.08778220864476949,0.15547302084758033,0.17206717644530348,0.08352632260664052,0.15911608489009302,0.1966998025635719,0.11521285440434376,0.005836527988810262,0.18530414230194098,0.16890332481167147,0.22132393051892452,0.0013359679638670849,0.019300339984752588,-0.08794349190689857,0.006062310461950471,-0.027482908425649828,0.012008431570863475,-0.09010122071699553,-0.13196407532396676,-0.07124457970733081,-0.025645471110615242,-0.014592953603714745,-0.007314518653054975,0.0,0.0,0.0,0.0,0.0,0.056338524338000906,0.09270879524015989,0.09124793651270857,0.10069290147642007,0.12137471467289229,0.2016572459342636,0.09666222787397896,0.09096661966260051,0.005575137921350611,0.07999905095357009,-0.09602531379485225,0.1369712188647692,0.08966999308541271,-0.10567442873489062,-0.08226178793574697,-0.03982107456911147,-0.03756399397867356,-0.07352815967630458,-0.06449447490532563,0.00995878662081422,0.012788369829684532,3.7602999471967463E-4,-1.3147064317315502E-4,0.0,0.0,0.0,0.0,0.0,0.0028381310154816934,0.026777932717929533,0.07610911903079795,0.053411770155148745,0.06343074723844634,0.11222727748717652,0.11382235387326867,0.049800903165609194,0.08475041052323713,0.04029381583224429,-0.0289078693227563,-0.08705758416272578,-0.1269960536445124,-0.10229673957278873,-0.06642754195336935,-0.0774216731716421,-0.06518507816129065,-0.028399373064855713,-0.0035315853492157464,0.0136126478794628,0.008522447819284693,0.007768327761988817,0.0,0.0,0.0,0.0,0.0,0.0,0.0,4.0028139637504775E-4,0.003143189004721412,0.009648414537894818,0.016187423159700436,-0.00855081101504312,-0.02439122809328426,-0.011733964629668458,-0.03478454008672925,-0.0201744523874909,-6.591666243310454E-4,0.003679893442834142,-0.04420998012949442,-0.012824897027414472,0.0026266926750127084,-0.03957408883383428,-0.04582479538373173,-0.01055921588536289,-0.0030163019274892077,0.003233699347094898,9.121607569807517E-4,0.0,0.0,0.0,0.0,0.0,0.0,0.0,0.0,0.0,0.0,-3.339123306341927E-5,-0.004251518401579459,-0.012826754235228024,-0.005330839427791089,-0.0024874377659110415,-3.2583090066981416E-4,0.00409462811762211,0.0018626816627494455,0.0024036733989480107,-0.00442666964190187,-0.005362233533161892,-0.014200084166743093,-0.01876297645317083,-0.018362550184354638,-0.003981003158994149,0.0,0.0,0.0,0.0,0.0,0.0,0.0
0.0,0.0,0.0,0.0,0.0,0.0,0.0,0.0,0.0,0.0,0.0,0.0,0.0,0.0,0.0,0.0,0.0,0.0,0.0,0.0,0.0,0.0,0.0,0.0,0.0,0.0,0.0,0.0,0.0,0.0,0.0,0.0,0.0,0.0,0.0,0.0,0.0,-9.909991667737688E-4,-0.020874709765512825,-0.05868109732508993,-0.05651724808330278,-0.02730761067780823,-0.018790826588885153,-0.02622961088706624,-0.006025301398570835,0.0,0.0,0.0,0.0,0.0,0.0,0.0,0.0,0.0,0.0,0.0,0.0,0.0,0.0,0.0,0.0,6.563776286410768E-4,-0.004409614908593801,-0.007982485692731774,-0.050175540039286155,-0.07003235268708298,-0.13208229448619974,-0.18987262517535203,-0.1889820681877913,-0.19113331044494605,-0.17009310946815037,-0.12490912908560066,-0.09703645766243235,-0.062163374255631586,-0.06306732692882304,-0.042414159681836976,-0.02843482906940839,-0.0170014688202521,-0.005357986075074302,0.0030292549879847993,8.792451216824416E-5,0.0,0.0,0.0,0.0,0.0,0.0,0.0,2.4605656165374367E-5,-0.014652851582667305,-0.01537540937576414,-0.02298984200658675,-0.06880371469293893,-0.05903648342276622,-0.09954875720917823,-0.16142756289964785,-0.189767646373959,-0.22925336436845495,-0.21484326942490528,-0.2093246009587522,-0.18098436961446046,-0.1413329562530293,-0.12786081018497114,-0.08391861683649951,-0.09116252690067445,-0.05453338925055814,-0.008724611490234967,0.004698104880438435,0.009636438177949553,0.00265028559614836,0.0,0.0,0.0,0.0,0.0,0.011405757530767873,0.02062261896919409,0.0013449923888940556,0.018566260425402617,0.046624199184048656,-0.002807113407494263,-0.03236616002342834,-0.04012111181525044,-0.07571712836990262,-0.10115998156715464,-0.12085198698275952,-0.11513680804437124,-0.019107737931445025,-0.039952265932523094,-0.08701555635237819,-0.0351409625178297,-0.10099224553885887,-0.09373481587241908,-0.1118156635593918,-0.06815261416661446,-0.01070898632732469,0.009009378116507517,-0.015381667889276328,-0.003127257761430177,0.0,0.0,0.0,8.975944615927166E-5,0.013843670489955006,0.05851001696733655,0.0592361543503501,0.09794609929583949,0.05607561717860674,0.02727894735020338,-0.09071977303412028,-0.034291096202742004,-0.04766509657684437,-0.09785042671950825,-0.11341845129228093,-0.07032943845507297,0.08974178815976919,0.06752464401174439,-0.05928305128561537,0.05979527748338107,-0.045683758044393036,0.007891458147176393,0.11565374384690612,0.05788367673926735,-0.009240162660391493,-0.01927002357191079,-0.03378620055624886,-0.0075811766218397995,0.0,0.0,0.0,0.00116696003207705,0.023023409039225305,0.054384282294233005,0.040625562842433016,0.1036983180468209,0.10365989140398492,0.08432165572406324,0.08515121344477423,0.004177570674096974,-0.08099591620696774,-0.16945639518558808,-0.19000099951515995,-0.10825814947765054,-0.11382621079803873,0.006109468152118622,-0.16893310659465133,0.042144999524979784,0.05952194141335851,0.1736776839316327,0.22905108602643473,0.0711906904573024,0.011755147797169982,-0.00869264321331854,-0.07544479986074039,-0.026143868277756502,-0.0021953394037556714,0.0,0.0016342506571709176,0.009752896585057565,0.022481364081991792,-0.0052287038664803965,0.00995812999974102,0.031526518240727226,-0.022835110458313233,0.04046929172432247,-0.006133710108814671,0.016874026607337868,-0.009024122683694086,-0.24840682239395387,-0.298767426632122,-0.3034506061797418,-0.18094168165064442,-0.10625273662656393,-0.15475698388490666,-0.0313491560535495,0.11504307541178728,0.12817106633622644,0.09917948857975305,-0.03593400744314724,0.09601521808192004,0.04792088161170916,-0.07228977955138272,-0.04382549536137675,-0.0018789005251437525,0.0,0.004202528281532224,0.007016888892541432,0.012067253926884054,-0.02106255481517962,0.024586110003239455,-0.0014260025245102302,-0.02242275663436246,0.1521376796751275,0.10294813730321221,0.07503309762800986,-0.05706796047470855,-0.16463438637808525,-0.215055561594292,-0.1868078329053926,-0.18054858532742873,-0.035165363357540246,-0.11906005160211264,0.09859750559996172,0.08383070383698997,0.005962391751600566,-0.09858788990211456,0.045705053798411,0.08276105846822239,0.003906626932509176,-0.09826325368527267,-0.03710297229769313,-2.8926439333796085E-4,0.0,0.00591756174776627,0.016357678649857384,-0.03157893625138674,-0.03383812517702063,-0.03259772719349613,-0.05448683806794284,0.010095533022862879,0.08007440635778165,-0.04605600234378669,6.867856782329212E-4,0.04758399615142851,-0.12142238634876264,-0.09935500185800501,-0.11730537861735718,-0.14371318677347372,-0.05446511101056382,0.07343949034328662,0.04513182128401759,0.07968532447606445,-9.224155862259524E-5,0.011142553899816398,0.008603471821382958,-0.05447286230354754,-0.08423058423451138,-0.06873966211944105,-0.0293495546936628,0.0024212139191525685,0.0,0.001952281679813832,0.02693526427204019,-0.002190933188236631,0.043471445453540196,0.02516498202159153,-0.028192004487938103,-0.03945022825723804,-0.09572276477831661,-0.08466038892717072,-0.013512236403653496,0.022778723611795445,0.022740532337470372,-0.1100528420663161,-0.07550409297389922,0.0759350403315082,-0.0501353433533669,0.037760080035214395,-0.023442882180745608,-0.10683959628792646,0.02531393812200655,0.03244031828713329,-0.033209923970580243,-0.05878901993510639,-0.09519325759688464,-0.05296910698357123,-0.029179185521681715,-0.0026327001905020425,0.0,-0.013354626383359184,0.007020232287920942,-0.002621156540808858,0.052511645913020114,0.03568771001981426,-0.10349601862807285,-0.11803383760227278,-0.11910801294417787,0.02916767771329722,0.0752614497590563,0.027209197975679725,0.12893067943225905,0.0034400847196693505,0.025777424027131277,0.15281768437765808,0.12884163835956852,0.18832816552055054,0.07746641413358962,0.041824836316350325,0.10219825259115078,-0.1022039592531639,-0.09764645581125676,-0.046146315508217225,-0.051714704164297076,-0.02843770088978009,-0.010064186947187298,0.0010759394517092713,0.0,-0.00838179964852326,0.006997773352236676,0.014399286928710975,0.0398013629290908,0.07271491447877225,0.05941628107544007,-0.07567678778311955,0.09607107994366186,0.12153854920058987,0.21750592155570359,0.10639405962775027,0.08247280246222845,-0.010727355797188275,-0.03448738316262803,-0.03845918859605937,0.25019153477527784,0.2089638358511364,0.0399904398393929,-0.10487560739247102,-0.08996996169701234,-0.10435714440884782,-0.11014546730447299,-0.07812307826462267,-0.02400446654248784,-0.004272522650131601,-0.003308764422951034,0.0,0.0,-0.0053508887357402255,0.003034761731597907,0.02483379690423807,0.04070933686060602,0.10159441538823544,0.17945069158490334,0.06725977739842429,-0.012935395724665918,0.2089664817722603,0.009390923266946754,0.023114645818599913,0.004106072809193625,0.03718854386578499,-0.07393751231874404,-0.061275930921807165,-0.058763616679491565,0.07228500367302233,-0.18843325052819868,-0.04294245398822129,-0.024294919999845954,0.01886854335458473,-0.05881965848068503,-0.004542079981306268,-0.03119772549714242,-0.010163558979539154,-0.010125989465246173,0.0,0.0,0.0,0.0,0.023635037876848473,0.04074089103738524,0.1892420034820674,0.37633055512444397,0.29569136173818017,0.11352105184601503,0.14471439673369696,0.09957942141084794,0.10672322962614877,0.12884156664524377,0.020275726229156348,0.10683045941788029,-0.16603423204759912,0.10166159202128952,0.2464282142915063,0.12594329158876066,0.15884735503491954,0.1839144325903225,0.15517106108585924,0.12487441620953905,0.03774229286848786,-0.01995978433188705,-0.017336395023898624,-0.007029263394154807,0.0,0.0,0.0,0.0,0.02456160145743981,0.06732745048601291,0.2973004157598384,0.3229311590278306,0.43049274482852806,0.11113459152727392,0.2219897061090843,0.15901165088573582,0.06720166889721137,-0.006546705627535029,0.21107920270111888,0.22463552041145948,-0.022543691199185176,0.2226970411314294,0.26061811664482537,0.23528921354322196,0.10212736547940285,0.14358735546681953,0.12985016338719868,0.13986700284050468,-0.009593902238300906,0.018642366494990785,-0.05409129002302991,6.902822132491525E-4,0.006562767331259335,0.0,0.0,-0.0013619586335666728,0.01160889806686195,0.017456426770742453,0.13550437232286575,0.15299582901434022,0.27162646211104124,0.09215782886487502,0.10558447208911753,0.11953769610826491,0.12080443346559147,0.027810110286168414,0.07007245060162862,0.2370272742785507,0.2904735369451913,0.21261213470681742,0.15293252719386774,0.15788465852961114,0.19771431645340506,0.07441885311374952,-0.07062670359531291,-0.0018673146368318831,-0.052033076651221456,-0.07025084625110145,-0.07213430609680073,0.011244364586943105,0.002833294553525769,0.0,0.0,-0.008821180554919456,-0.012354116350057329,-0.09512369785282258,-0.09248967821196245,-0.049792188389160934,0.03898541782350729,0.08114178403550816,0.0344592838269459,0.08695811401781565,0.056785141247731305,0.08192109494844452,0.013922866071712368,0.10622721573844407,0.12502504589823402,0.2082763261299634,-0.005885153381570576,-0.057240947789527076,-0.0874418759989505,0.012914655819049364,-0.0944955506522873,-0.029175823275678633,-0.06180403838808688,0.00486032002109601,-0.00942937403019999,-2.0633985403194119E-4,0.0,0.0,-0.008125917628737345,-0.019393973712141323,-0.013853359088435073,-0.09994627321995314,-0.05881449659825479,-0.13507984096193756,-0.029791109828554166,0.06334497987870265,-0.032902954082838845,-0.1900601899970272,-0.09773576127232943,0.03963294283256474,0.1587296902383833,0.3173492757231313,-0.01053684825615439,-0.05038445828376415,-0.05853754814582321,-0.1125853888263082,-0.10952064279421977,-0.0862724778652921,-0.06906206782167576,-0.08177131385215543,-0.03456144529179704,0.031769057901174624,0.026936981174922308,0.007026877414654237,0.0,0.0,-0.01634895373489744,-0.013412060459999252,0.00783906046561297,-0.025358482225470987,-0.010822439212094359,-0.023791374545134563,-0.07403939269092764,-0.09203844232487099,-0.07982906050433115,-0.19702427272746642,-0.17169856192455407,-0.18886160004913544,-0.027432326464817164,-0.058424236087627625,0.003634050289598051,0.02291636498907852,-0.016064949665087848,-0.11701937947719704,0.0043603037167162986,0.040753595462166246,0.002125997078476801,-0.02243725403650912,-0.012193367273805445,0.05571930874475087,0.018454049873431643,0.01273943755238651,0.0,0.0,-0.0023214437739999595,0.0039206943880356355,0.007855586517536917,0.004140702859254292,-0.03840952425492185,-0.06043362924362745,-0.10819218703214592,-0.045250120493450056,-0.14653150492890166,-0.11351343965681834,-0.17790195326877278,-0.07171276274629451,-0.09409666543994827,0.025827919722026343,0.16837544478346517,0.08513690847573678,0.023243424866028768,0.04940380984286757,0.011195918994432313,-0.02164505061698078,-0.05003708623445013,0.02288006532297907,0.023215051799768658,0.008073063007948194,0.0020717126923291453,0.0033426841737478484,0.0,0.0,0.0,-0.0021523540889676162,-0.010782966643145013,-0.0036182916199621585,0.030323264295129545,-0.017816105676576516,-0.12637501289335265,-0.06698628454286418,-0.11539151343225079,-0.07390314656489876,-0.035374485974617266,0.10433420779188268,0.010343438958697394,-0.07634532264528535,0.04864140464499061,0.044901285241608906,-0.02698637325982711,0.036878905199620254,-0.03899727653318169,-0.07749624880341545,-0.03026681827901699,0.006990610360205073,0.0018234675897825093,-0.0019068495316893093,-0.00847648258905978,0.0,0.0,0.0,0.0,-0.0010576429000744376,-0.006601088383712622,-0.017902329122127622,-0.0509616870080666,-0.04052752713567082,-0.020909864985558,-0.0754642877082842,-0.08680121083817148,0.04379376755743422,0.03042908326620849,0.025585550130020743,0.03219536697468569,-0.002856167328878661,0.11550118534568894,0.1135672113499202,0.027750457984120278,-0.09262441113694442,-0.02888240198087935,0.009823799960539488,0.0472435484047064,0.021086034620291197,0.017434562633688675,-0.005920392443033742,-0.008718767206582937,0.0,0.0,0.0,0.0,-7.991872159211582E-4,-0.007607363615338255,-0.03331792869719765,-0.09051956341097518,-0.1250349902937466,-0.11887722663530918,0.024847335795035147,-0.003365376030521358,-0.1206705396744167,-0.07705362572080156,-0.05395867901309743,-0.09034650119828727,-0.11719923098437243,0.22926628816621236,0.09332183418567688,0.15207150796033053,0.07377691772974701,0.08328567056956811,0.1670915384931846,0.0789857674327619,0.040885083872434745,0.035629193380229796,-0.01643664829622137,-0.0146286744166296,0.0,0.0,0.0,0.0,0.0,-7.786029961543668E-4,-0.0018675017544441473,-0.037636974786479684,-0.07027825202823942,-0.08261489125399647,-0.05600964568874728,-0.09816731185374915,-0.13066125441048354,-0.07425325305468315,-0.07851329506843628,-0.05029558746489898,-0.1113270211193208,-0.053851430226111746,-0.06327595483698713,0.16634553714879555,0.015809944905511825,0.02546095348891405,0.09440888465028131,-0.0034515951031974606,0.02871359156576122,0.020222324870815347,2.845967324159177E-4,-2.6190705829467163E-4,0.0,0.0,0.0,0.0,0.0,9.060013592360834E-5,0.002181822139719705,-0.0037508489437290734,-0.014603457709087197,-0.03841648425295533,0.0031533912495311186,-0.025306495990044923,-0.16858757714416397,-0.2661599997603118,-0.26926718667908367,-0.29218690385593654,-0.380665283116957,-0.3254970914015389,-0.3323260993585484,-0.32851888220397757,-0.2603474398395993,-0.1866949143741093,-0.04720750925138689,-0.04233699835090578,-0.010900012436566152,0.006449966911354327,0.007266463545569572,0.0,0.0,0.0,0.0,0.0,0.0,0.0,3.203887690748966E-4,-0.008854214035792623,-0.008930297962196286,-0.035789979307431684,-0.07129695083578544,-0.12519025715337742,-0.1089009687051525,-0.13234694648086812,-0.1327995333282803,-0.19269535983891206,-0.1515483210496969,-0.19694380805653205,-0.18017233128629204,-0.11194725433274101,-0.0876794724649092,-0.10996731199175823,-0.058794843483294196,-0.025019804620132625,-0.009614163164792399,-0.007054059125584659,0.0,0.0,0.0,0.0,0.0,0.0,0.0,0.0,0.0,0.0,2.2059743149042583E-4,0.0011861714820677542,1.8036428114084625E-4,0.006707775867185711,0.004074699969884988,-5.866471671359163E-4,-0.004993083143996781,-0.007605545250136836,3.6960733126069833E-4,0.002764865025007982,0.012999462694680773,0.005645133368401627,-0.014607028687422557,-0.019606639752923146,-0.0053001941147354965,0.0,0.0,0.0,0.0,0.0,0.0,0.0
0.0,0.0,0.0,0.0,0.0,0.0,0.0,0.0,0.0,0.0,0.0,0.0,0.0,0.0,0.0,0.0,0.0,0.0,0.0,0.0,0.0,0.0,0.0,0.0,0.0,0.0,0.0,0.0,0.0,0.0,0.0,0.0,0.0,0.0,0.0,0.0,0.0,-3.764617886363028E-4,-0.007308161996224216,2.9362569490131617E-4,-0.01574293128679389,-0.007228670222397452,5.541143467057297E-4,9.906073154774123E-4,2.6736691134224787E-4,0.0,0.0,0.0,0.0,0.0,0.0,0.0,0.0,0.0,0.0,0.0,0.0,0.0,0.0,0.0,0.0,0.003742034051810322,0.015279463579771823,0.015219024422331572,0.03460855844176879,0.04254264300111662,0.00554727588141907,0.010703294513354103,-6.803237160231336E-5,-0.03050092531988263,-0.033355573977289436,0.0024161395701778267,-0.04716280299648255,-0.05309372646886855,-0.018795009310101765,0.005313668609142425,0.01823852222371893,-0.030668000828650652,-0.023915497695940473,-0.005247874428102508,-1.5568372675233298E-4,0.0,0.0,0.0,0.0,0.0,0.0,0.0,0.001127418162473196,0.00212433319201874,0.009811995646038569,0.030965377866308607,0.05427985226020573,0.10187039739964959,0.07600417533261204,0.11628234468745863,0.1244263133995732,0.037956727788896215,-0.04402448513519283,-0.008670777190258395,-0.0679796503310934,-0.04700160625349043,0.028746898360204793,8.81573165292804E-5,-0.12202375349869773,-0.10607801600705775,-0.04154131962108571,-0.01686414034099286,-0.01625907389316228,-0.004060388255495104,0.0,0.0,0.0,0.0,0.0,-0.003847899063318709,-0.006260959053406907,-0.0010767784371500159,0.012197465390471039,0.01551664071268531,-0.02225840703346808,0.0030292174705577163,-0.019991101560644556,-0.034500267812517554,-0.01663529517498002,-0.005101997119824805,-0.03985265256574794,-0.022692778419217848,-0.01262227461422079,-0.024694315410956878,-0.0461019689779205,-0.0062706143784778835,-0.025362693992872932,-0.054998687926014325,0.012957422326377116,0.0593163437869781,0.030013915752661963,0.014772116277857251,-0.0071760106207818105,0.0,0.0,0.0,1.4886520192388579E-5,-0.004097909887398116,-0.03119446553597521,-0.05576203410737739,-0.0479139941023925,-0.01759548635475415,0.06367906672047151,0.0901201358200023,-0.07920696977186063,-0.10896245826983159,-0.10792496012557254,-0.24363233835396153,-0.14566554787581623,-0.09784190626386252,0.0012524194107804954,-0.08082062354890532,-0.0012521321909294105,0.16108713741254874,0.11395576026167771,0.16498983191455285,0.2948033043149602,0.3376193618870149,0.13539102100363962,0.0037365161415359497,-0.015751385349600286,0.0,0.0,0.0,1.938880154714441E-4,-0.006690620315157184,-0.048040088881450664,-0.1139366881818511,-0.11313298703352716,-0.025522148805460474,-0.028633093260286728,0.09774988100035256,0.1269090174859468,0.029825569677809752,0.00959247195235975,-0.05769660572556583,0.04500816996474989,-0.01748638967965446,-0.015619551965508445,0.014912987577816143,0.11924486969459043,0.010334652577957662,0.16868598242070174,0.1972536586625987,0.3962896427751158,0.4539402074055738,0.30876190221855515,0.05032331019440323,0.010819309857654016,-0.011377414433915333,0.0,0.001977475114080894,0.0027679932544483693,-0.025271046790053816,-0.03680457641396952,-0.0670170289712683,-0.01066873464299226,0.04607050760146156,0.005279582949188158,0.03626772462054854,0.09094437108051152,-0.02790209059112422,0.049661699480359055,0.026561054559123918,-0.08543970551521089,-0.019894978689402674,0.0018547567435484023,0.02850657040518264,-0.008740563348938933,0.030789525852175464,0.15610613940005946,0.09924989081466797,0.2970259291278776,0.5060960840151133,0.5357749981092004,0.23312425635833023,0.06823227587929658,-0.009755815935103761,0.0,0.004260743964861503,0.00954187015576927,-0.0022563590292738254,0.021209244103435925,0.0305432635777018,-0.012480951862784816,-0.0018034156389169457,0.1134115854569245,0.16346396605240768,0.012342966544745329,-0.09513618547303386,0.0011586832873937076,0.06056780013808544,-0.009697889948533083,-0.1110665038690886,0.0024374553907707502,0.09317282256389361,0.10243706169198857,0.007009707430312514,0.07388031696138717,0.028543701967978414,0.067731481690978,0.32371239910820243,0.6106980918290948,0.4721549743001679,0.16676654243413377,-0.001499071850491007,0.0,0.007644121102651931,0.017639824180449015,0.02432773762792252,0.040880842708803704,0.04119082969795257,0.02149877380102306,0.07262784292340224,0.03358240886826462,0.08212793415796849,0.317513344948439,0.17834432540016273,-0.14343184569505518,-0.040218525331863195,0.006892816298351481,0.019022968613140154,-0.03902495471557156,-0.07521301807932278,-0.10977464304081161,-0.05131952822776301,-0.15060800304480604,-0.1135230077460851,-0.10054139292959544,0.1601933274941122,0.5575397886757375,0.5464731933970415,0.1492927921828763,0.004655008260818735,0.0,0.0018044926946783986,0.01083422299335897,0.011116694049730752,0.040122600165022594,0.012399493860354924,0.06317310608443429,0.07661417142290661,0.005000873555963142,0.1619547801240362,0.15546961998046357,0.1417489961553075,0.046171832569150646,0.12432890528192406,0.028675497373504284,-0.0571602690687426,-0.08487135048114049,-0.19319272529983997,-0.18581153947320397,-0.1540777607196584,-0.07904834718115267,-0.16439908756124436,-0.25664735524836685,-0.06990779426833375,0.22725206831918618,0.30714343334968836,0.1392306086812572,0.04508660807494801,0.0,0.004018548952347601,0.014974116605188548,-0.006139260119426628,0.0455699605855278,0.06661266887450765,0.11283536949243149,0.12035991912005332,0.05940822913848376,0.11633633994519492,0.06101170190850266,0.07954922822185045,0.12188302180033825,0.21458772426889336,-0.059376995991716176,-0.19092184684477512,-0.1669491740985137,-0.1020766119320083,-0.27601581993811897,-0.2948177640070737,-0.3214559771510371,-0.22963178687759375,-0.4047415540429922,-0.2969201887540491,-0.06651532751006413,0.16744070607259473,0.08223343876838449,-0.0013473961288904491,0.0,-2.102651455308264E-4,0.004179921906934873,-0.005756467045522325,0.04763985358612662,0.16786754324122358,0.11605556349668424,0.20471824821199863,0.13518973930953976,0.06670315636430424,0.21453149105026856,0.2494022815936401,0.3382942252332326,0.12714293306154156,0.14279822659112423,0.044977520605600535,0.04156645617261484,-0.06327207931206483,-0.02871167693924001,-0.007885431264539923,-0.24037968421388478,-0.12807919168326085,-0.2840916430200114,-0.31566101088119874,-0.14869138594716919,0.01695952948094503,0.018687804757838433,0.0,0.0,-0.00124474447845725,-0.0033682968236906042,0.004429058788681758,0.07128976167831443,0.09807260384099924,0.022383044929987425,0.04745609283631118,0.1423692406767205,0.014924036617421182,0.18124324850791884,0.0762255753888065,-0.02272654586683883,-0.025238071542443334,0.02193469120863031,0.016186447645750602,-0.09725157031846753,-0.09727239823311348,-0.01520689088384649,0.0421124427031396,-0.17097445073297,-0.18700762767474058,-0.19952005703472422,-0.23780662312779882,-0.12079044692304236,0.006056356987137815,-0.0073603150403156485,0.0,0.0,0.0,0.0,0.0038091901534461326,0.06646239714050227,-0.009395980708643094,-0.09145892227092492,-0.10186933437717696,0.0692387348071118,-0.09362212163100135,0.16677824471503175,-0.06238421673937492,0.09768694327803241,0.002344730831087861,-0.059745848462376246,-0.03973626300522825,-0.011632469723574805,-0.06557024966019867,-0.06933441358803395,0.06614459606180671,0.08285105963183091,-0.1328889387037789,-0.13829848447717824,-0.1129527919567936,0.026307689798114015,0.0037717614947380177,-0.0029523374953135157,0.0,0.0,0.0,0.0,0.004061243547565848,0.06286580546507817,0.019418970475369318,-0.0992852448067664,-0.1631110124010339,-0.003796328546033749,9.814223414017695E-4,0.02322062678387186,-0.08372976790967278,0.07404398966740544,-0.013572904973106396,-0.03988088258622454,-0.009679419164319737,-0.13675676812666365,-0.1341855739936185,-0.06227176838151294,-0.004652944615654827,-0.09658460267744175,-0.05062350194013286,-0.06377608036574044,-0.01609899359023204,0.0485077255994973,0.011563497113936205,0.0017484312382463282,0.0013688136296382844,0.0,0.0,0.002334408713762005,0.028305638683757375,0.020898579358391334,0.023789470355688465,-0.14290264767276176,-0.10142789804288459,-0.12710674720766824,-0.011891887369634126,-0.04728589542666657,-0.15770477754208265,0.005419072878474146,0.06662363000605628,-0.009974388320798003,-0.004339449000954802,-0.05832075317352414,0.16015180766946369,0.12640613097667555,-0.03516088027560744,-0.012023946453984295,-0.032256031859567776,-0.05524121268604226,0.030206179543866684,5.948857647525885E-4,0.009504163985190502,0.004055718400903376,5.992045073674387E-4,0.0,0.0,8.113712716031824E-4,0.021546798236190854,-0.023225310066140096,0.04866499113926607,0.06207733799555421,-0.12363206824047913,-0.15204214536212515,-0.11740695204934193,-0.05856934207314466,-0.178776396568399,-0.10701452956738884,0.05133124130410825,-0.04401281464824913,0.04460642009684494,-0.04096628558879983,0.04394327198473904,0.08549765165213104,0.05123999914300743,0.013016933373813013,-0.05816320390916625,-0.013645696952054599,0.03557684600138493,-0.025442454592826028,-0.01976817379452015,-4.587604696925695E-4,0.0,0.0,0.00569378199646906,-0.0017908781808229238,0.0725571591816379,0.01555532706277792,-0.006312086352138661,0.2210452223247488,0.11403839333797404,0.07616391056894811,-0.0863424192847357,-0.17466558116725486,-0.1717233930939774,-0.11774705174884154,0.1010537016514328,0.10451910092114156,0.02423942331527463,-0.08207588950621303,0.0715608977971496,-0.005089409745222943,0.004380287029973905,0.15019077571372913,0.06969774533203209,-0.0038667394250850385,0.025209584211614133,-0.031159830530409452,-0.02165908435117572,-0.00617376254468919,0.0,0.0,0.011573369353583518,0.004237889180893565,0.08771256229511672,0.05485992376779592,0.04161834940166534,0.17155260895554159,0.2373510083576008,0.17197649785453548,0.09723181587682667,0.054646323888219536,0.062101827371066946,0.07367429222297991,0.045193991106402084,0.017070724307844953,0.052221153875021964,0.06703826715655826,0.047309073869404854,-0.0390943160629358,0.044182379883481344,0.155603272051031,0.03272724605610987,-0.002881874254399842,0.004067281987350591,0.0011834776335739655,-0.0086593905836774,-0.009272891427004042,0.0,0.0,0.0016295356465419316,0.033003150494517054,0.07576825204893953,0.059550739474293936,-0.035092492722469684,0.09169385857845917,0.10850432734680511,0.3004425049926218,0.18379381427345814,0.1303026280550598,0.1550120080156865,0.0303936012519154,0.09580648610472871,-0.021300144489667296,0.011478517437689243,-0.011689513086798501,-0.0351101831634861,-0.09944764189969037,0.12332422083907693,0.09640328506281175,0.09426394437983195,-0.02197914044845811,-0.017610415564364344,0.0031646151163009233,-0.007635548370174424,-0.0032693039765970613,0.0,0.0,0.0,0.03323226964481736,0.03057493786771795,0.027773520623444334,0.02424307783630026,-0.09036352505741119,0.023930592600104966,0.03887194357154199,-0.04460065719731691,-0.01583633829437134,-0.1226321733469449,-0.02951038500435856,-0.040739647984688016,-0.06944510353649064,-0.10232862211604445,0.20719016863635722,-0.07856642863368594,0.0020729230143310554,0.126104059490348,0.07715173192313919,0.10179587321196246,0.041759208130024546,0.01985473097627412,0.010594579045868854,-5.137715667244266E-4,0.0,0.0,0.0,0.0,0.012732711986680696,0.02752542332950428,-0.009138457119721532,-0.044698380723865797,-0.08613982791176263,-0.12310957803067483,-0.014573499633673716,0.2266082865012209,0.10542737875377844,0.13416751290216333,0.12047807396969566,-0.02904074111732637,-0.033665676844662006,0.11244087286268481,-0.04556564241537348,0.11815619940477616,0.1341556411279274,0.018351312383398283,-0.04617076671649021,0.03486505686718566,0.051537989228337557,0.015569596737300516,0.010941075885580317,-5.342107396067042E-4,0.0,0.0,0.0,0.0,-7.792079098785307E-4,-0.021489197477932223,-0.006984856193672595,-0.02152393807395957,-0.029259308387515823,0.061137238587076835,-0.003628554438366289,0.040249243232500335,0.006348112261538243,-0.020341225694366905,0.06612164573191126,0.09621286941692048,0.0549815490637513,0.1405724133719089,0.0063252686032452335,-0.0025867768539433434,-0.03210884644795484,-0.04080532689550673,0.010627566483464544,0.07653876894803113,0.04024234246719615,-0.0036606714053020973,-2.716579479382515E-4,-0.0013688360495841341,0.0,0.0,0.0,0.0,0.0,-0.011905877745163149,-0.019039449076764182,-0.0029209458949595053,-0.005010874237024508,0.010783240921505384,0.05620942644415877,0.18788211553978496,0.08320495571460242,0.04700480122059681,0.08935702620639681,0.047269252238878866,0.029399656781300593,-0.020933534070640383,-0.02974181694003294,0.01922666718264915,0.025527811243077094,0.02841666762892949,0.017263782414779896,0.03195585505195103,0.03642692983549311,0.0012356508155932189,-3.1903379817954814E-5,-2.4245090940129947E-5,0.0,0.0,0.0,0.0,0.0,-4.2394728815327477E-4,-0.00804399581588078,-0.025302334507285855,0.005168958758137643,0.01618413704103027,0.04313960509565511,0.021607151742121224,0.10197858774809271,0.054302045218981,0.07272853852919273,0.06783752302813968,-0.08513663923302504,-0.08152850852409065,-0.05167882066358036,-0.010124788521342664,0.012916132769598118,-0.034495232597119625,0.00403696814031046,0.018284290484036018,0.012908438330809582,2.4494953764062056E-4,-3.490737262404804E-4,0.0,0.0,0.0,0.0,0.0,0.0,0.0,0.0014429081579494085,-0.006990216587690312,-0.012719874782320525,-0.03129410952365236,-0.03832333597263376,-0.06505239254209448,-0.05825360062573938,-0.06243384295955238,-0.05116492534000314,-0.03501041088670746,-0.037169847539236876,-0.08527473110857502,-0.057153656308796666,-0.010858376096723502,-0.029615733081287298,-0.03965593642381822,-0.03227105797223301,-0.013463156265941604,0.0024616772085122693,0.003949123324828308,0.0,0.0,0.0,0.0,0.0,0.0,0.0,0.0,0.0,0.0,-2.0007488656547755E-5,5.872824218850814E-4,0.0010778902741253344,-0.0027222653681364772,-0.005600819989187369,-7.882608678988037E-4,-2.233632790047655E-4,-7.337915181308903E-5,-0.0026932840296118284,-0.019249290855147035,-0.015500575200901194,-0.0029767421264050684,0.0018896555065019344,-0.0222274112805606,-0.009594157577402488,0.0,0.0,0.0,0.0,0.0,0.0,0.0
0.0,0.0,0.0,0.0,0.0,0.0,0.0,0.0,0.0,0.0,0.0,0.0,0.0,0.0,0.0,0.0,0.0,0.0,0.0,0.0,0.0,0.0,0.0,0.0,0.0,0.0,0.0,0.0,0.0,0.0,0.0,0.0,0.0,0.0,0.0,0.0,0.0,4.458323664471264E-4,0.0122068939167104,0.08156346966790909,0.08439634553123797,0.04490919663834577,0.02385994225122045,0.036526604112959035,0.008566707115872417,0.0,0.0,0.0,0.0,0.0,0.0,0.0,0.0,0.0,0.0,0.0,0.0,0.0,0.0,0.0,0.0,-0.0046801491323612675,0.0045989998371180375,0.011310692233579809,0.07302025134831931,0.11733169091011919,0.17808742034258354,0.31960051518020827,0.325819424539761,0.3511205987155727,0.4103861090614732,0.335772121446247,0.24740394091647233,0.23820654677547465,0.18242500042117848,0.16666753988971297,0.11045923321978379,0.062351613473731124,0.042629256508492204,0.007926574846572517,2.3294923407079588E-4,0.0,0.0,0.0,0.0,0.0,0.0,0.0,0.005574945413550221,0.008715433398722773,0.005100336040774542,0.018046926175323982,0.06338936181323057,0.05513961256502209,0.10007788722526093,0.21478196135974728,0.16238673619970478,0.18085225827543075,0.2723894585075218,0.44398792861872355,0.5163154420900811,0.3680074411996385,0.33874334910987564,0.31732224161044364,0.3554107792369458,0.29051362974915534,0.14317267646747828,0.05903518570405712,0.02350608874300583,0.00455878906324561,0.0,0.0,0.0,0.0,0.0,-0.0036483447779793138,-0.0025751712534118915,-0.001189494488880578,-0.030501580048692602,-0.038112305857059575,0.029946391854432722,0.046867378169733326,-0.003925758106151279,-0.07581703868213964,-0.05802258514660478,-0.09645855549353724,0.02748031794474986,-0.04094848993276267,0.055017563356037795,0.10943740579482714,0.15347378953806948,0.1173744509369491,0.17693338358910335,0.19318323843816085,0.1164426399160544,0.11008658878623828,0.05324698804609775,0.023632516184610968,-0.006410066129284535,0.0,0.0,0.0,-1.3824045847619174E-6,-0.0016350412690472528,-0.008254565494852041,-0.005216758270230007,-0.08579419365203052,-0.03961785144702981,0.007194298777187022,0.03799900563585941,-0.04613345760339511,-0.06623400199554588,-0.16650555435314074,-0.0919436072482097,-0.037299993466230454,-0.08871097246925967,-0.11234912054154723,0.003387860143671283,-0.042583951463580384,0.028498071432416495,0.04453923924266846,0.008467869013938924,-0.02280560937959003,0.02597819721585419,0.024620904327730234,0.022968122502860386,-0.003810314920850375,0.0,0.0,0.0,-1.825974733417789E-5,-0.01246205052537985,-0.02355803155587854,-0.04338414958499391,-0.11192783583578651,-0.02227718935339637,0.035248954535483046,0.020987913640366878,0.03500108193605049,-0.1135611029485569,-0.07764126831685617,-0.05662886675406065,-0.179232346729977,-0.062153190545792165,-0.11865233077147094,-0.19790612261222354,-0.04887117131094736,-0.19384328114372715,-0.18764904097793836,-0.13293828491966492,-0.066936070573951,-0.007900137060077504,-0.036915580756669585,0.003670666125100081,0.006936124680181559,0.0013395598415677254,0.0,0.0029138341638166657,0.0010936420310079414,-0.014253605435632428,-0.02401568887663638,-0.06718215937797561,-0.09516157001043135,0.016224931783491565,0.013227195318134582,-0.01841033287316302,-0.01245844891508099,-0.108651126793878,-0.09019828701041867,-0.04005547104573316,-0.17836186471567475,-0.024148290761317023,-0.0949820873447377,-0.055346146016615166,-0.12536190764683647,-0.16646240262149783,-0.14287477960960782,-0.16045543784264138,-0.062386753851265436,0.0029360625173202636,-0.06855568737482111,-0.03413738237160755,0.007718414763166694,0.0011211975891110807,0.0,0.0068575763369429716,0.002121225071532754,0.00803962764571277,-0.04779614070247192,-0.029932929268518406,0.0109033128957498,0.07371229594558117,-0.0575041158381502,-0.025307773027128232,0.05287314247898248,0.042707360780263916,-0.08122216730920258,-0.07166779638547018,0.02141146209943524,-0.11941502495432293,-0.09928110782618456,-0.19812539342638538,-0.17953526120318838,-0.12295913475864158,-0.05186788173108339,-0.09931019195267766,-0.14191162964017812,-0.07151328129760194,-0.02886032134083528,0.011926870064839994,0.009691253949418697,1.7167866030395505E-4,0.0,0.014829977244760529,0.010469098022247004,0.00963307542307986,-0.02029696246855756,-0.03024515756700489,0.05310864549649126,-0.04571676480609192,0.02976479301727182,0.021026451408391943,0.05600461042876901,0.06601089267482141,0.03312978307562941,-0.033351332571622094,0.00773463379859258,-0.12355327600951826,-0.1657514447989107,-0.12467223302735264,-0.23988639515422866,-0.07774222552743193,-0.15214612511675496,-0.11859574648586625,-0.16128452072841284,-0.16463395682702844,-0.07054443943387778,0.017013732954853908,0.001002760201995874,-0.005185133623239047,0.0,0.0026111362806122357,0.0043169797061434955,0.0022575928346516075,0.0026450273278305868,-0.032275175781217684,0.039850894457940655,0.05107271968956593,0.026094303501829244,-0.07018281548287195,-0.0522150920759822,0.0404299825848672,0.03516923181241102,0.17066088339554486,-0.0794239738277148,-0.16933977654164237,-0.11348796468136955,-0.2712121377462333,-0.1884597576746348,-0.16414147773042645,-0.1606725197242329,-0.18053665289751317,-0.17104672932504658,-0.12174593570987709,-0.11989268021663492,-0.04496116991709937,-0.043522514855268354,-0.011388063188140904,0.0,0.0031427536032802433,0.006841696942992291,0.014974917096227452,0.010594747189954864,-0.009167548685725785,0.05351692620182729,0.013296773930832492,0.02456141696291874,-0.03865547079560242,-0.11121191208200919,0.034451318645123526,0.04257778821319818,-0.007916044412403452,-0.044760669451313885,-0.03482462249825635,-0.14216607106772713,-0.128481404277554,-0.11906199173428968,-0.11227569305095399,-0.17088667506472274,-0.07845181194258694,-0.13966415377671365,-0.07178715578607112,-0.08544148976403264,-0.07161063765386554,-0.04100574935296935,-0.0011571399617506732,0.0,3.907077724882531E-5,0.005782184026382996,0.009372280036476884,0.0025902949215173866,-0.0066004065890730435,-0.020255004032277407,0.002704740260041583,0.005485402435357635,0.013735508213959937,0.060551027452446594,0.12629590063047877,0.15862532598506085,-0.02800856652287294,-0.022377541785812513,-0.01827723573365684,0.04749817945040232,-0.011671650708958592,-0.028022160927944625,-0.05751451900043345,-0.018880892960960793,-0.0028065560710729496,0.08015533462823435,0.0713082423124217,0.0532479288119201,0.04087058250126472,0.0016241240435358,0.0,0.0,-7.791473106390177E-4,0.0025676829267882893,0.021372019409141886,-1.3560527898046513E-4,-0.03678586298556483,-0.028293797129164407,0.05833867257840937,-0.01076557981921861,0.08484397323584282,0.06318874214401508,0.1498979920399298,0.08354143579398908,-0.054000571769169906,-0.09976665201688104,-0.0421952019116329,0.0267405285823225,0.0017893553016283313,0.06772454945145547,-0.030329125413438445,0.06773933679545255,0.05556568417531737,0.17436666992731045,0.19102055447883987,0.17183675008779395,0.07841522041042186,0.025890827997470403,0.0,0.0,0.0,0.0,0.007740451161110007,-0.0263690606757628,-0.01906225440454935,-0.01905342703243827,0.029014933746867432,0.02692016738665857,0.07603886195704117,0.09010304067980432,0.14332913609772996,-0.026709665351748534,-0.020930637894351168,0.11199067329908569,0.048830625858600846,0.23962221641031645,0.06337399262191107,0.17870655872673216,0.006034627432400753,-0.06293051744288888,0.14797291168185916,0.21517664074487436,0.12439963783558625,0.14759209620949412,0.036859072914636845,-0.00839270582235601,0.0,0.0,0.0,0.0,0.009892967636481495,-0.035206142894600265,-0.08339279665019074,-0.05085181379943413,-0.04202427376273114,0.02164003751961898,0.13265388976648412,0.12510463150779758,-0.08490472671029657,-0.018919010660735862,0.015102393300271511,0.09343986325637242,0.1085742583453092,0.054269077558278075,-0.030123813341706423,0.06769630643569662,0.07146603927975938,-0.039849481517182504,0.1438618741225727,0.24324561640659156,0.14037422213652997,0.10352033839770104,-0.03208635779471412,-0.04303667361340631,-0.004308034070798855,0.0,0.0,0.0029419817758345426,0.0016745503341604,-0.039439067059231336,-0.09051735873487472,-0.043714579127721746,-0.04809981707953604,0.03976092998175565,0.15084384266974035,0.11172355162598327,0.10577875599342006,-0.09636056396328688,-0.046566601655464945,0.11334907375620805,0.03152416479470116,-0.13722481846284904,-0.14181977672753884,-0.044227776562613674,0.005870913464222012,0.12659307933410785,0.15717951070728373,0.15285078376283823,0.14549906737972132,0.0702187735114856,-0.05450918201495539,-0.016503307304102155,-0.001869483107745272,0.0,0.0,0.008013148627319389,0.01551156949490293,-0.004499910699809215,-0.09885614272876007,-0.043734214526446484,-0.006761168112455294,0.09252609359258464,0.15096899680613876,0.250363900051984,0.07269827794047738,0.02505823374534208,-0.06396355058231222,-0.005786333143069335,0.04567328031649584,-0.008752204190753921,-0.04799638522563897,-0.034693528366951255,0.08960690809495041,0.2525028465604808,0.14014712492846673,0.10266195630721357,0.055317811544290885,-0.01502090667587292,-0.10633617228253585,-0.0047887720652441375,0.0,0.0,0.0035100026966902176,0.020418756925899624,0.03374916010039212,0.007894299539034151,-0.049001584357962175,-0.05345930374906798,-0.04080927598169902,-0.021462036137355273,0.12348080354174638,0.4155557011057246,0.2595824823443874,0.15684554338223938,-0.03126849313504406,-0.05508015544754275,-0.016588308304178814,0.0843241010414329,0.06965131735841786,0.1327271203423416,0.21531528113538168,0.07147496292329583,0.11237476572073664,0.058511132828714896,-0.002697461987918353,-0.06721359164598238,-0.050479643269069153,-0.01477804126197719,0.0,0.0,0.007127842880174088,0.02153719199498392,0.054108307848753964,0.006085036763961669,-0.07491164811012593,-0.1205183063512649,-0.09753673260115366,0.02106811949146017,0.013905488007885469,0.26438648824115135,0.38956858793190036,0.27809239453828977,0.10202947244916113,0.025001113987948506,0.06814603300438028,0.15422003491735847,0.09730942530030369,0.24440344406251635,0.07221940127539961,-0.05673334270145141,-7.69976461052087E-4,-0.04665165935957439,-0.12808490471581446,-0.09066722229625308,-0.03015474914513969,-0.006379568317572235,0.0,0.0,0.0010035151288347636,0.020436041526875826,0.07529142568992668,0.006517743469034688,-0.08800550007362692,-0.08190242749521372,-0.07886218669700318,-0.1086705459541692,-0.09353144226829511,0.1241763545949112,0.12244775912110624,0.24787588630386978,0.36582996107441335,0.07221975565844214,0.144030326111503,0.2015972993532801,0.20254603246190464,0.01920428469159607,0.05952821202112844,0.007505702416900108,-0.15442687400766378,-0.13503364313199973,-0.14516174451777408,-0.06377876040248448,-0.01812714803444039,-0.0010643436068710759,0.0,0.0,0.0,0.02270515881462196,0.06323824281457384,-0.007721243812239685,-0.07987928445218205,-0.03298500645997033,-0.0025290301015008223,-0.03761623825591575,-0.024817800069236864,0.02145206915122711,0.04476921261159649,0.106940420427354,0.21419166790057806,0.3334591041305384,0.15700287070352553,0.10291160508016123,0.003334709641268448,0.09565611982103046,0.025416219753110765,-0.047041614682606196,-0.03914795384671433,-0.04340865236803805,-0.04310280835138343,-0.03780522124526633,-0.006193589823610317,0.0,0.0,0.0,0.0,-0.001316250374570833,0.02289756028257214,0.022566521944242145,0.017687460763156932,1.4707565477831114E-4,0.06959356380188995,0.03594584023928589,0.002098306219773871,-0.02326892729473732,-0.11287708832108082,-0.05293614782877099,-0.08290571857790272,-0.08146838191016248,-0.09824549197952773,0.025563894484965564,0.1118234431129792,-0.04854700641505728,-0.03528919550191954,0.00523898393946803,-0.005040591818818426,0.014933959524074888,0.003246376240828828,-0.002655582786545756,-0.0016645400228630345,0.0,0.0,0.0,0.0,-9.022670443789754E-4,0.0075551346918554625,0.03434650723986104,0.08068237834751266,0.12202481597654517,0.10356986262145591,0.09110039062724566,0.07936858793294874,0.1120874584404795,0.008799651669019876,0.05917224369284728,0.0019488468299212294,-0.05368681395642648,-0.0962093321270417,-0.08451032900314197,-0.061687118280677355,-0.0187612256216166,0.02470754354124597,0.02395498767205605,-0.01681962271720577,-0.016755761639743585,-0.004298190635638765,-0.0014491623308691083,-0.002593143802253899,0.0,0.0,0.0,0.0,0.0,0.0013495334667589624,0.0201083159350559,0.06645164155201354,0.08831707811248922,0.0846384607218001,0.11745594889185255,0.11301078413376879,0.1270772733852982,0.11355431154664718,0.08496433860270294,0.07635714046001475,0.09915180751861319,0.06556005858465928,-0.004558771501873076,-0.05665709553570395,-0.08754452332377036,-0.04088764301266252,-0.037312344575283124,-0.04765240060963359,-0.026122168159068662,-0.002511867780552606,-1.0238072182567481E-4,-4.6419723745983145E-5,0.0,0.0,0.0,0.0,0.0,4.16375913976121E-4,0.011072725073264981,0.029795202131244578,0.048743450115740834,0.06396217788270189,0.09223202245153828,0.09801926103990727,0.11433471423758262,0.07162783801981584,0.049287069239564385,0.06300404599838944,0.0681515799908475,0.1049231962353978,0.05923093325462023,0.01601659294119078,-0.025105143317704356,-0.04175062082096814,-0.0456558197276067,-0.026119667655383823,-0.012722276036357979,-0.0018410863467332923,-0.0013962565277174958,0.0,0.0,0.0,0.0,0.0,0.0,0.0,5.819073467802651E-4,0.004248510988921663,0.014083166507471677,0.021828528872385667,0.048863034754561864,0.05833182689812713,0.06996250414217174,0.06623361408246366,0.11241058131855212,0.08561685456064781,0.05320622936018206,0.05583539175723457,0.05033584019681053,0.040804629670488764,0.015249517748773775,-0.007636202106454744,-0.004207559195172599,-6.014865837599679E-4,-0.0041600325438892385,-0.0029912285613949282,0.0,0.0,0.0,0.0,0.0,0.0,0.0,0.0,0.0,0.0,3.622849173449278E-4,0.005489235831883552,0.010654356060070891,0.013502313414303394,0.011393013529670544,0.002745527199173732,0.005774277887359063,0.009103446466586536,0.017425054409947925,0.01819306942368606,0.02157592622044029,0.017581467519272257,0.011714567070438494,-0.0034834217817762136,-0.0035208575267818222,0.0,0.0,0.0,0.0,0.0,0.0,0.0
